Row.names,p1p1x.x,p2p2x.x,h_cgvc.x,ang_NHs.x,ang_CHs.x,dist_NC.x,dist_NH.x,dist_CH.x,h_scvc.x,h_norm.x,h_sc_x.x,n_psi.x,r_curv.x,r3r3x.x,dfg,V16,V17,source,V19,p1p1x.y,p2p2x.y,h_cgvc.y,ang_NHs.y,ang_CHs.y,dist_NC.y,dist_NH.y,dist_CH.y,h_scvc.y,h_norm.y,h_sc_x.y,n_psi.y,r_curv.y,r3r3x.y
1A06_A,0.063447558341961,0.0123845554299519,-0.123045812942423,0.306915569376384,0.142781351830985,0.0349005723608766,0.226326442298791,0.47428294339149,-0.0706795137603954,-0.00100582367234962,-0.00786372693619161,0.239522006237727,0.0133178484243122,0.119821379074833,di,co,0.8555,test,co-di,0.857260627,0.775618978,0.600557048,85.25317534,50.88562684,11.32044888,12.22832108,13.30677509,0.716392852,0.733231338,0.989822835,99.47558944,0.024357716,0.997508361
1A9U_A,0.10284311794775,0.0695149765305918,0.0980866630090047,-0.106230657994876,-0.0188036173306379,0.108624603334396,-0.0564931329374545,0.0543459244323511,0.0774337466615025,0.120579327914806,0.00341071563928213,0.037528381816289,0.0354563125514521,0.075258758044987,di,ci,0.9685,test,ci-di,0.924221436,0.875755315,0.999738275,36.02519494,31.30628294,12.75830841,8.343207359,9.665707588,0.979963166,0.938546178,0.993819023,94.75621175,0.029385826,0.918843862
1AD5_A,0.0751922082389423,0.0554974813107154,-0.122903487670063,0.241458276230187,0.150028038393726,-0.0259755112472348,0.339837919683115,0.240920975677906,-0.191034315395355,-0.213401943133266,-0.0161286048644227,0.0328123947617746,-0.00434159340871387,0.0488846669113689,di,co,0.9935,test,co-di,0.877223061,0.851185907,0.600813969,77.45368419,51.76371203,10.13316631,13.78763676,11.28340816,0.502219234,0.374568502,0.986893377,94.64602746,0.020346886,0.872286801
1AGW_A,0.0630126668591188,0.0513579673100194,0.0670053143742639,-0.021889134231754,-0.126762567728008,0.0433738933690871,-0.150493826134551,-0.0967320854131197,0.0772918554846759,-0.000135985356403987,0.0148038248863855,0.137608316303489,0.00116080851622256,0.033940401461017,di,ci,0.9845,test,ci-di,0.85652144,0.843930302,0.943631225,46.07481564,18.22483466,11.48570633,7.051912785,8.355784416,0.979710668,0.734700191,0.997857272,97.09447867,0.021596597,0.845906325
1APM_E,0.145380211905608,0.137074119368281,0.0897286932241399,-0.134711796473818,-0.115737614258783,-0.0705053237630964,-0.137672575628495,-0.142451212491927,0.0865171483486143,0.154395363494686,0.0186768143416986,0.0424020632319867,-0.0213542654439519,0.11846438438104,di,ci,0.9995,test,ci-di,0.996521925,0.994170775,0.984650737,32.63155648,19.56073463,9.264689445,7.228039265,7.959376335,0.996127249,0.995649647,0.99923004,94.87008041,0.016482951,0.995112916
1AQ1_A,0.107529522032728,0.0957076203557457,-0.397893749331248,0.476982670407687,0.365120150925988,-0.0197133166063321,0.467580289726392,0.511418955558091,-0.40044624780765,-0.438294505562072,-0.0670548043743695,0.00692886013091633,0.00442233438285722,0.0854668871459543,di,co,0.975,test,co-di,0.932186938,0.921664926,0.104410401,105.5173321,77.82654735,10.25529957,15.54244328,13.6287632,0.129566788,-0.00519646,0.968842758,94.04128473,0.022337358,0.936863838
1ATP_E,0.147426494096971,0.140399845961819,0.0982316495297971,-0.148410286813087,-0.0245651074463928,-0.0481939641362945,-0.168324078405545,-0.118954583492596,0.088693439633877,0.156971593878046,0.0137005698851378,0.0385359771227022,-0.0123255624826351,0.121232866669767,di,ci,1,training,ci-di,1,1,1,30.99932806,30.60815986,9.69983387,6.806977272,8.163104057,1,1,0.997466227,94.7797532,0.018533559,1
1B38_A,-0.0384468547377086,0.0536487339607438,-0.335032412858217,0.39328070662521,0.285773827243033,-0.0302096047456391,0.42395303433876,0.400409086015953,-0.424190069900113,-0.355645989378948,-0.0299885397617226,-0.00689961883194249,0.0534299129236509,0.0125231980458448,di,co,0.9975,test,co-di,0.684070237,0.847945483,0.217885662,95.54391746,68.21210755,10.05058765,14.9431324,12.66625118,0.087314213,0.134368007,0.98198077,93.71819624,0.033468008,0.808099447
1B39_A,0.0145997573459713,0.0696513032367662,-0.391699567301528,0.421374153525246,0.281219783472586,-0.0229170279114784,0.451218237416203,0.436684201733376,-0.459960858730419,-0.40165352088916,-0.00909805386227656,-0.00180772001085639,0.0375697103024231,0.0196065466885941,di,co,0.995,test,co-di,0.774233801,0.875994264,0.115591939,98.89136096,67.66029144,10.19281673,15.31767654,12.98077488,0.023659426,0.056677361,0.989385332,93.83716333,0.029865823,0.820603381
1B6C_B,0.141735495964015,0.138926242522799,-0.0142026671276512,-0.100981321556336,-0.125961811450046,-0.02443233345333,-0.040154824036952,-0.292458024036239,-0.00274615278459988,0.131402447230841,0.0181710541151293,-0.214311390241819,-0.00445379791892071,0.120167554641558,di,ci,0.7585,test,ci-di,0.990326985,0.997417116,0.797037191,36.6506738,18.32186276,10.16326332,8.567647934,6.658740997,0.837281537,0.956822645,0.999050775,88.872229,0.020321402,0.99811945
1BKX_A,0.137971513995385,0.127760113167232,0.0731070977919462,-0.0687311904113733,-0.190998605731018,-0.0673681142874749,-0.107240728491128,-0.178728527618987,0.0814893545470804,0.133728967580453,0.0106282426127299,0.0508794055834045,-0.0243224630781862,0.113569656434061,di,ci,0.999,test,ci-di,0.983929328,0.977845489,0.954645968,40.4934024,10.44131689,9.325875282,7.646083832,7.644833565,0.987180196,0.960751325,0.996377251,95.06814498,0.015808811,0.986472461
1BL6_A,0.108760608983099,0.066308394670995,0.0977876182346297,-0.13051922066063,-0.0177156745842556,0.0944055016538973,-0.0551673544162736,0.0613148179914606,0.0805800603563536,0.125962148945776,0.0128795774191734,0.0715053924842614,0.0376417820190915,0.0794882317558301,di,ci,0.9725,test,ci-di,0.934279422,0.870134923,0.999198449,33.1311182,31.43810959,12.48098946,8.361419678,9.726131439,0.98556209,0.947635882,0.997175229,95.5500504,0.029882192,0.926309972
1BL7_A,0.10808898928917,0.0737570232488419,0.0967496083658609,-0.127070712284217,-0.039195699280017,0.0882933757096038,-0.0621730075766623,0.0834645023486126,0.078476457265542,0.126160146091345,0.00951929422940982,0.170012254701255,0.0421741459252425,0.0794285928631095,di,ci,0.9665,test,ci-di,0.933137867,0.883190636,0.997324667,33.54202139,28.83536261,12.36178303,8.265182495,9.918180466,0.981818689,0.94797023,0.995984188,97.85156407,0.030911587,0.926204694
1BLX_A,0.12274138230828,0.112873183109406,-0.238704175570898,0.31466370764479,0.250776458448117,-0.0325898699469847,0.236144506176537,0.416350462422385,-0.192650800250951,-0.208909710714282,-0.00393754752438131,0.392117284468951,-0.00594109767305406,0.0986591894530605,di,co,0.8925,test,co-di,0.958042605,0.951752164,0.391774295,86.17639616,63.97145619,10.0041647,12.36319256,12.80447102,0.499342669,0.382154313,0.991214456,103.0408245,0.019983605,0.960151648
1BMK_A,0.108907858698282,0.0587596010600399,0.0981782074068288,-0.104531942502748,-0.0227294147720607,0.111141050328844,-0.066933855349864,0.0659733592861204,0.0781875864573024,0.122898676265692,0.00302324967282982,0.08428496599363,0.0264608561862966,0.0843497169597614,di,ci,0.9755,test,ci-di,0.934529703,0.856903644,0.999903528,36.2276035,30.8305918,12.80738735,8.199782372,9.766523361,0.981304638,0.942462747,0.993681687,95.84863227,0.027342769,0.934891745
1BUH_A,0.0494848652186218,0.0125613244685649,-0.55866849427986,0.563925011469355,0.415920684829863,-0.00575034328413232,0.531807824261615,0.466093924280118,-0.554801714119943,-0.608474471062634,0.0178935228988432,-0.0194952456185637,0.0120289979593031,0.0342072854776172,di,co,0.9455,test,co-di,0.833528175,0.775928813,-0.185814993,115.8768503,83.98207734,10.52762318,16.42474174,13.23577213,-0.145111648,-0.292570962,0.998952405,93.4239121,0.024064991,0.846377444
1BX6_A,0.121763594096635,0.135684936716594,0.0942265149567219,-0.116248491768124,-0.073806710996561,-0.0264816561675765,-0.163371031929422,-0.195331276652503,0.0881878658464213,0.149593821383152,0.019393652899849,0.0566338859158548,-0.0183199400613736,0.117911828153574,di,ci,0.999,test,ci-di,0.956380654,0.991735861,0.99277006,34.83153107,24.64152636,10.12329483,6.875017643,7.500879288,0.999100322,0.98754152,0.999484121,95.20259262,0.01717211,0.994137512
1BYG_A,-0.484993517217729,-0.844896988497219,-0.210215380369683,0.260293056174812,0.313617337786387,0.0865959242827563,0.375786183736893,0.246991356655043,-0.151919261028767,-0.447832340645053,-0.0287849424280721,0.190982034715422,-0.000985113748831687,-0.468147074983957,other,ot,0.689,test,omega,-0.074927124,-0.726996125,0.443201351,79.6979215,71.58592178,12.32867718,14.28146076,11.33604145,0.571825204,-0.021302531,0.982407381,98.34150187,0.021109213,-0.040407336
1CDK_A,0.1464069980467,0.140026583646844,0.0967752408858861,-0.144359232690107,-0.0732006485183784,-0.0637089656153482,-0.134146492241475,-0.151174015981428,0.0886847400904808,0.156086779106995,0.0193228128946672,0.0211361908543406,-0.0156368944008888,0.121193787950799,di,ci,0.999,test,ci-di,0.998267158,0.999345758,0.997370938,31.48202692,24.7149633,9.397240639,7.276477337,7.883745193,0.999984519,0.998505857,0.999459012,94.37322471,0.017781486,0.999931016
1CKI_A,0.144293275896443,0.137582950730408,0.0546433755589346,-0.0428597343212756,-0.136031808995584,0.0059191092738511,-0.135383512930396,-0.176514417114497,0.0653758771854363,0.0443616701677383,0.0181298405743394,-0.0783625351973494,-0.0450358982245351,0.117561184116837,di,ci,1,training,ci-di,0.994674455,0.995062638,0.921315851,43.57608705,17.10167535,10.75521564,7.259484291,7.664031029,0.958505962,0.809841184,0.999036167,92.04853714,0.011104355,0.993518535
1CKJ_A,0.144614967700926,0.139172335650404,0.0407927590775423,-0.0229826020093119,-0.151053658602255,0.00255647947315443,-0.111744744515511,-0.167104117501302,0.0598399858803179,0.0314596963000522,0.0142964734469878,-0.112885399471331,-0.0433280772455662,0.118151245921636,di,ci,0.989,test,ci-di,0.995221236,0.99784846,0.896313164,45.9445247,15.28146917,10.68963337,7.584211826,7.745623112,0.94865474,0.788054258,0.997677443,91.24194517,0.011492237,0.994560146
1CKP_A,-0.0122726070223873,0.0335734188148687,-0.313906182476442,0.380145947269727,0.269551412334478,-0.0224890216909876,0.405001212375374,0.402134178605431,-0.400670666918277,-0.329214369468077,-0.0414084598164744,0.031212371619276,0.0501205579252325,0.0208428077186584,di,co,0.9985,test,co-di,0.728558723,0.812758126,0.256022053,93.97885978,66.24642818,10.20116425,14.6827898,12.68120861,0.12916743,0.179001778,0.977933018,94.60864453,0.032716384,0.8227857
1CM8_A,0.146406260859726,0.139188787919406,0.0894567362361579,-0.140611298925195,-0.0924748407647896,-0.0385622939188805,-0.14482096325002,-0.147962345763217,0.08662152095333,0.14941155869437,0.0168691768188956,-0.0346113760371712,-0.0277736807872805,0.119001716200351,di,ci,0.9965,test,ci-di,0.998265905,0.997877297,0.984159809,31.92860781,22.37949831,9.887682915,7.129841328,7.911592007,0.996312982,0.987233742,0.998589329,93.07073893,0.015024967,0.996061445
1CMK_E,0.147149557131385,0.133688246743505,0.0656823315530752,-0.026682804139371,-0.172971556017973,0.045223075778069,0.00182549989156471,-0.182326319711264,0.0724238571395466,0.11564315582174,0.0151266520636101,-0.0883559274605849,-0.0142351217465345,0.120996845573381,di,ci,0.993,test,ci-di,0.999529289,0.988236128,0.941243019,45.50363122,12.6256649,11.52177143,9.144334793,7.613638878,0.971047974,0.930210708,0.997971697,91.81505159,0.018099858,0.999583362
1CSN_A,0.138653540792577,0.130095795077155,0.0621382089679628,-0.0983331604407393,-0.148082563144984,-0.0343559257740706,-0.145892131455982,-0.20823713213992,0.0689664778708739,0.0851814198094219,0.018773074253953,-0.154499520697378,-0.0569041845543645,0.119312124746345,di,ci,0.9855,test,ci-di,0.985088572,0.981939396,0.934845283,36.9662125,15.64147852,9.96972084,7.11512661,7.388978958,0.964895503,0.878771479,0.999264159,90.26967312,0.008408818,0.996609396
1CTP_E,0.141606002865011,0.130786048690988,0.0589199048453959,-0.0028613455664406,-0.191425101926759,0.0208685547121641,-0.0124365636679989,-0.161535514129074,0.0750395402715082,0.107044915936046,0.00313047033302851,-0.073648525544531,0.00567769609003267,0.104286429814095,di,ci,0.9665,test,ci-di,0.990106885,0.98314925,0.929035704,48.34205069,10.3896381,11.04677868,8.948415756,7.793905735,0.975702631,0.915691285,0.993719691,92.15867523,0.022622477,0.970085176
1DAW_A,0.146340515901368,0.137398702661578,0.0957323932397323,-0.185009741821155,-0.0407521306772267,-0.0381523804611518,-0.153147882398905,-0.103571739955045,0.0873079099259374,0.137169566823873,0.0193551167721348,-0.00910611021858663,0.00463833378882669,0.119979527111066,di,ci,0.997,test,ci-di,0.998154158,0.994739694,0.995488423,26.6383606,28.64676892,9.895677567,7.015453815,8.296481133,0.997534424,0.966561295,0.999470462,93.66664379,0.022386416,0.997787533
1DAY_A,0.146208767704461,0.138828846254176,0.0963147285744607,-0.182328912196132,-0.0483120499655395,-0.0392794835221843,-0.101567449069599,-0.0741759859084987,0.0846534820476069,0.123333089398324,0.0197403031287186,0.160872913786765,0.00506065493974563,0.119490235876287,di,ci,0.994,test,ci-di,0.997930225,0.997246403,0.996539636,26.95779188,27.73072914,9.873695374,7.724018097,8.551357269,0.99281082,0.943196319,0.99960699,97.63803257,0.022482334,0.996923808
1DI8_A,0.00180064061360008,-0.041100873660171,-0.467839149091821,0.473007114113193,0.417346169833719,-0.0204425354244666,0.476835746208384,0.467052382481038,-0.492810109814565,-0.50495415649859,-0.061346142144691,0.0866697830604953,-0.0405442835234525,0.0106939798826066,di,co,0.9955,test,co-di,0.752479085,0.681871464,-0.021852783,105.0436291,84.15480418,10.24107742,15.66958618,13.24408245,-0.03479643,-0.11776132,0.970866174,95.90435112,0.012124495,0.804870406
1DI9_A,0.0803328383443025,0.0774922696788513,0.0909359687969403,-0.173317270074225,0.0104617038096971,0.0543505569012168,-0.121154633727726,0.0467032285253726,0.070709576176643,0.106232133827947,0.0186214265930137,0.172800662878346,0.0878113887555489,0.0542521899158064,di,ci,0.889,test,ci-di,0.885960613,0.889737654,0.986830072,28.0315641,34.85237878,11.69978714,7.454947472,9.599441528,0.967997379,0.91431878,0.999210408,97.91671242,0.041276763,0.881761861
1DM2_A,0.122068091147317,0.108297137130608,-0.241871003038739,0.314966252360723,0.233330833548888,-0.0404634062917485,0.342901504176257,0.521738822006853,-0.328242167408627,-0.2391505229911,-0.0447488189902837,0.0251384514590356,-0.00622220334540356,0.09502741722584,di,co,0.966,test,co-di,0.956898209,0.94373142,0.38605764,86.21244554,61.85755976,9.850605011,13.82972145,13.71824169,0.258055298,0.331088147,0.976749039,94.4667335,0.01991976,0.953740635
1DS5_A,0.140761980259798,0.134212786978771,0.0949763632498452,-0.165004464805596,-0.117718380270869,-0.060339538697349,-0.0945680787605375,-0.0985087633275896,0.0868185259095071,0.123371116210823,0.0200583482035583,0.143120734847762,0.0395908224414833,0.115768899376429,di,ci,0.99,test,ci-di,0.988672296,0.989155525,0.994123662,29.02206719,19.32072407,9.462955475,7.820168972,8.340379715,0.996663556,0.943260533,0.99971972,97.22327078,0.03032486,0.990354691
1E1V_A,-0.0451205401692486,0.0205311334518703,-0.325346821902221,0.361122507350369,0.248241445919865,-0.0426258305132048,0.465780627136555,0.389029130649034,-0.41073077147308,-0.334568331361577,-0.022744712635807,0.00367811746092167,0.0634359980068383,0.0108234839384119,di,co,0.9975,test,co-di,0.672726944,0.789898034,0.235369779,91.7121429,63.66428726,9.808430672,15.51772118,12.56758118,0.111265286,0.169960807,0.98454832,93.9653344,0.0357406,0.805099014
1E1X_A,0.00878257374782626,0.0195230818148876,-0.356915905248304,0.376623479411574,0.242255781002447,-0.0335948744444935,0.466578510236652,0.410610052864158,-0.45297083883092,-0.354618894731268,-0.040925687536945,0.0152504619823501,0.0570994856113469,0.0090175462320141,di,co,0.999,test,co-di,0.764346308,0.788131154,0.178382286,93.55914403,62.93900079,9.984563828,15.52868176,12.75469875,0.036098297,0.136102411,0.978104135,94.23571058,0.034301445,0.801911069
1E9H_A,0.143031786013841,0.13715286170663,0.0871340956593248,-0.12986203968592,-0.123933555856277,-0.0120753233004658,-0.125631227466101,-0.155406673720329,0.082922617386934,0.132081340777803,0.0122447766032937,-0.0737678142278829,0.0095186840183256,0.12039076230955,di,ci,0.9995,test,ci-di,0.992530295,0.994308792,0.979967053,33.20942387,18.56762766,10.4042654,7.393452168,7.847045898,0.989730714,0.957969059,0.996950226,92.15588817,0.023494846,0.998513469
1EH4_A,0.140325925633582,0.116563122899125,0.0588223100405411,-0.0427518044003179,-0.16210801623953,-0.0281849753290173,-0.146586608336171,-0.225347707673847,0.0749224243333129,0.0255447604571686,0.00923235115851788,-0.101873606813843,-0.0611974380251129,0.113263173661035,di,ci,1,training,ci-di,0.987931132,0.95821977,0.928859529,43.58894732,13.94200628,10.09007454,7.105586529,7.240621567,0.975494221,0.778065998,0.995882482,91.49922462,0.00743373,0.98593144
1ERK_A,0.146069152257577,0.138234875241486,0.0817003836499214,-0.133211836388418,-0.0807578047596784,0.0790068289360798,0.00970651254340519,-0.211238170306371,0.0733341988045251,0.133757492131244,0.0104118404892897,-0.315286745290087,-0.0153406602284188,0.118170472012368,di,ci,0.964,test,ci-di,0.99769292,0.99620531,0.970158291,32.81028256,23.79925832,12.18066502,9.252596855,7.362958431,0.972667944,0.960799493,0.996300548,86.51304148,0.017848767,0.994594085
1F0Q_A,0.128780362110003,0.134054170377751,0.0924036345660363,-0.124783848728977,-0.119415155804936,-0.056345828708694,-0.102999410602688,-0.0993555809024227,0.0873263969473602,0.127782489392583,0.0105085235964457,0.0418897770897893,0.0204540535122904,0.115822105779676,di,ci,0.999,test,ci-di,0.968307086,0.988877507,0.989479455,33.81451008,19.1151248,9.540845871,7.704347134,8.333037376,0.997567322,0.950709801,0.996334817,94.85811136,0.025978498,0.990448614
1F3M_C,0.107182637613528,0.0854622292811191,0.0119658856117313,0.116846318965539,-0.0495452087410821,0.164362270125031,0.199991859457836,0.376220066485652,0.0468751003576324,-0.0372944785041334,-0.011501394634676,0.316095117526016,0.0428326627656154,0.0913745517581471,di,co,0.573,test,co-di,0.931597337,0.903707139,0.84427582,62.60568466,27.58130658,13.84537506,11.86656094,12.45652008,0.925583484,0.671952479,0.988533476,101.2646431,0.03106115,0.947292387
1F5Q_A,0.128656367613921,0.128274242437253,0.0862160535846753,-0.0497503130132402,-0.117124797389971,0.0236198105608575,-0.0827164994533747,-0.0265648007160849,0.087806025516897,0.0586880624381292,0.00733159100832919,0.0117878236002678,0.0296426051921387,0.107505173903229,di,ci,0.98,test,ci-di,0.968096332,0.978746638,0.978309833,42.75504779,19.39264885,11.10043716,7.982975006,8.964170456,0.99842083,0.834033455,0.995208764,94.15480952,0.028065411,0.975767088
1FGI_A,0.05735421732551,0.0369421796421554,0.0606979417596917,-0.0127934095008352,-0.134729088035646,0.0416479344120354,-0.135143099742278,-0.0749452600499544,0.0736054221442023,-0.00551039019995063,0.0142875412132704,0.126854329318157,0.000727189422547753,0.0270019081759009,di,ci,0.984,test,ci-di,0.846903748,0.81866278,0.932245359,47.15860663,17.2595268,11.45204449,7.262786865,8.544687271,0.973150591,0.725624699,0.997674277,96.84322259,0.021498113,0.833658098
1FGK_A,0.0180938488680838,0.0277819205995371,0.0677582465912052,-0.0197644412098809,-0.135299502338195,0.0369579629538217,-0.144368288063143,-0.0955370376287207,0.0773598334166926,-0.00488617107742546,0.0149965252740526,0.148923700042576,0.00723165194524989,0.0241347241371958,di,ci,0.984,test,ci-di,0.780172724,0.802606977,0.944990394,46.32798108,17.19040937,11.36057472,7.136059761,8.366146088,0.979831636,0.726678787,0.997925574,97.35885122,0.022975413,0.82859678
1FMK_A,0.097381684427637,0.075448213465267,-0.177483440035943,0.280601569029351,0.293375636733886,-0.103868307795466,0.369386874575524,0.395301013071602,-0.197490684814246,-0.232241649744418,-0.0611552699589975,0.15902048088189,0.0233658715062329,0.0617524941690794,di,co,1,training,co-di,0.914938613,0.886154899,0.502287996,82.11775982,69.13322319,8.614002228,14.19355297,12.62196159,0.490730004,0.34275482,0.970933828,97.59475234,0.026639833,0.895001829
1FMO_E,0.144256217101291,0.135420436696635,0.0921492942228062,-0.162482756044323,-0.0979728879650421,-0.0796217049003022,-0.165642183390979,-0.166218748323744,0.0854938778326987,0.156532132927964,0.0190034305239394,0.0966230824343222,-0.0110351886005592,0.11580861992812,di,ci,0.9995,test,ci-di,0.994611466,0.991272254,0.989020328,29.3225386,21.71329676,9.086890221,6.843818665,7.753299713,0.99430632,0.999257904,0.999345808,96.13689994,0.01882663,0.990424808
1FPU_A,-0.887120551425831,-0.910256906211173,0.0768195520958996,-0.0465244664387583,-0.0695423390338644,0.0561162702215997,-0.120235433389565,0.0738354863827409,0.0859473476434284,0.0491289115187905,0.00102584309237654,0.0623525046561178,-0.0251882967278355,-0.806030262625566,do,ci,0.9935,test,ci-do,-0.758424244,-0.841556855,0.961347571,43.13941996,25.15824277,11.73422432,7.467574596,9.834692001,0.995113278,0.817891389,0.992973713,95.33620239,0.015612162,-0.636858152
1FQ1_B,0.142747129471009,0.13909677114395,0.0661200576172572,-0.0419150329826716,-0.175134971981904,-0.00551230727840797,-0.0253237663508423,-0.167178911153633,0.0830061534585067,0.0636305662139934,-0.00509288935408357,-0.290662956782559,-0.00421384652207361,0.110722917571719,di,ci,0.9755,test,ci-di,0.992046463,0.997716013,0.942033188,43.68865189,12.36352254,10.53226566,8.771383286,7.744974613,0.989879368,0.842379617,0.990804949,87.08835151,0.0203759,0.981447234
1FVR_A,-0.541019789042997,-0.727513323983611,0.0375536890185213,-0.0443970580208689,0.310634130477873,0.0731640829754405,-0.0479566246295487,0.166541052252336,0.0320578853073052,0.0580104924331658,0.00727639792929872,0.329170570678379,-0.0500402528420997,-0.372250347572817,other,ot,0.8015,test,omega,-0.170155229,-0.52124987,0.890466099,43.39290895,71.22444483,12.06671238,8.460474014,10.6384964,0.899215973,0.832889276,0.995189201,101.5701379,0.009967761,0.128875077
1FVT_A,0.044396744241322,-0.0550112154694027,-0.45802460668937,0.491188690796277,0.437029007077513,-0.0284803694145878,0.490166148043371,0.453967462525155,-0.506077072525527,-0.510078427301198,-0.0626485526665003,0.0983268566765429,-0.0363421048562525,0.0124643777306046,di,co,0.9985,test,co-di,0.824879873,0.657489871,-0.004135887,107.2100347,86.53978492,10.08431339,15.85270691,13.13062954,-0.058405238,-0.126414423,0.970404539,96.17670691,0.013078898,0.807995614
1FVV_A,0.138594516414274,0.134886963729955,0.0734663818413008,-0.132357243647537,-0.132153552055797,-0.0346612949059029,-0.171970576655124,-0.189479447562488,0.0742698883348851,0.13490444520268,0.0176420097050898,0.0640428569633205,0.0211503475735695,0.118333590994892,di,ci,1,test,ci-di,0.984988248,0.9903372,0.955294536,32.91211061,17.57160598,9.963765144,6.756885052,7.551617622,0.974333021,0.962736296,0.998863257,95.37569577,0.026136641,0.994882032
1G3N_A,-0.823847515134577,-0.887721447686168,-0.118658020315759,0.169319474443061,0.181537717590262,0.00139143164296226,0.210947078077902,0.368956727797606,-0.0613158525823365,-0.051748792441171,-0.0168334923985601,0.255594124346537,-0.0289098857427793,-0.765196544697243,do,co,1,training,co-do,-0.650878781,-0.802057439,0.60847775,68.85806529,55.58175803,10.66691113,12.0170536,12.39354324,0.733055662,0.647544193,0.986643532,99.8510983,0.014766911,-0.564776127
1G5S_A,0.081366112083771,0.0917153289738854,-0.37022971512621,0.407296065845495,0.396606132537862,-0.0555216009922915,0.414353445645616,0.476531041060542,-0.43753661030892,-0.414620563871534,-0.0412693500098113,0.0850718533101381,0.0124168352880614,0.0781478114149245,di,co,1,training,co-di,0.887716873,0.914667368,0.154348625,97.21390204,81.6417219,9.556921005,14.81126213,13.32626724,0.063563795,0.034780556,0.977982325,95.8670171,0.024153077,0.923943785
1GAG_A,0.146336445782064,0.139526886411941,0.0640360962357725,-0.0251606512410843,-0.113078987480212,0.0109898507661568,-0.125751677052209,-0.272153156849569,0.0783235367018388,0.0880227150902859,0.00872779844806736,-0.236149233764196,-0.0101523728132601,0.11804683452292,di,ci,0.993,test,ci-di,0.99814724,0.998469905,0.938271288,45.68500166,19.88288197,10.85411167,7.391797543,6.834794521,0.981546564,0.883569434,0.995703645,88.36200977,0.019027136,0.994375833
1GIH_A,0.123582051389348,0.10481534019525,-0.446325419001315,0.468275935828461,0.415374886651799,-0.0540444358278439,0.447524427056932,0.583336190671505,-0.514384785812275,-0.483379902562178,-0.0582039200023808,0.170198576874093,0.00496128059524053,0.098335869475971,di,co,0.9045,test,co-di,0.959471494,0.93762864,0.01698311,104.4798908,83.91594266,9.585730553,15.26693439,14.2523222,-0.073188969,-0.081329943,0.971979924,97.8559173,0.022459764,0.959580905
1GII_A,0.0579512169888483,-0.000461058081930016,-0.471240454483547,0.478211503131463,0.440506331783407,-0.0381114527047221,0.461015821679498,0.490978854550142,-0.414354984618223,-0.513408181234611,-0.0344074760314336,0.136300138818922,-0.0166187719239885,0.0256396173707838,di,co,0.9975,test,co-di,0.847918471,0.753103606,-0.02799271,105.6637523,86.96113436,9.896475792,15.45226669,13.45153713,0.104815931,-0.132037214,0.980414493,97.06391442,0.017558481,0.831253304
1GIJ_A,0.0913797104706864,0.085352154204921,-0.50817168862495,0.527053274626241,0.465600741934064,-0.0631033616707263,0.50354361885041,0.569497944658367,-0.53985513937123,-0.494913387299693,-0.0673816914013473,0.148768738519018,0.0512421583304113,0.0631210429848719,di,co,0.9775,test,co-di,0.904737031,0.903514203,-0.094659785,111.4834394,90.00183851,9.409051895,16.03647423,14.13233757,-0.118513939,-0.100805969,0.968726894,97.3552307,0.032971123,0.89741767
1GNG_A,0.144425324733849,0.136562457624821,0.0951400771154535,-0.144198586236223,-0.0972966891531786,-0.0667792824038705,-0.181197882457327,-0.0343540040622329,0.0875576448708127,0.130812458398329,0.0165929518642045,0.251708033523427,0.0137873382660899,0.116750983318241,di,ci,0.992,test,ci-di,0.994898899,0.993273951,0.994419193,31.50116857,21.79523216,9.337359428,6.63012886,8.896634102,0.997978832,0.95582636,0.998491422,99.7603037,0.024464347,0.992088322
1GOL_A,0.146896409007077,0.138473259416746,0.0722393679373422,-0.11247973308523,-0.107271231594725,0.0694665980100248,-0.00159526820829879,-0.211617417843155,0.0716639460391247,0.134549230809839,0.0186573135206456,-0.227027029047045,-0.0150132048119575,0.116629884268718,di,ci,0.963,test,ci-di,0.999099012,0.996623142,0.95307957,35.28059333,20.5866111,11.99459934,9.097343445,7.359670162,0.969695698,0.962136463,0.999223128,88.5751409,0.017923139,0.991874551
1GY3_A,0.140629280721042,0.11666651425887,0.0916507704868047,-0.133401547944424,-0.104312776252254,0.0068363417115749,-0.121074831586533,-0.146192542301364,0.072489573785947,0.117050645915009,0.00971586543977424,0.355510006398485,0.0164398979734797,0.117313241813187,di,ci,0.9205,test,ci-di,0.988446746,0.958400991,0.988120409,32.78767769,20.94508884,10.77310467,7.45604372,7.926937103,0.971164918,0.932587467,0.996053862,102.1855323,0.025066799,0.993080853
1GZ8_A,0.000358550512360994,0.0179020127127968,-0.304028990496778,0.360925921574851,0.246272200443853,-0.0416110954925578,0.467453660877239,0.411520445833507,-0.388933007061646,-0.307009665398439,-0.0377698469827105,0.0803536996739388,0.0700604670485405,0.0087808481805492,di,co,0.999,test,co-di,0.750027958,0.785289797,0.273852042,91.68871894,63.42567265,9.828221321,15.54070377,12.76259232,0.150054815,0.216497765,0.979222712,95.75678219,0.037245156,0.801493236
1GZK_A,-0.961469031280846,-0.753784971448192,-0.00633205480388263,0.13309934930624,0.137523488846997,-0.0775694482674857,0.00233513698620603,0.0171600870451352,0.0485043661973375,0.0212068684321996,-0.119919927750706,0.361280124468676,-0.0313533454503954,-0.82517810754688,do,ci,0.5805,test,ci-do,-0.884794688,-0.567297956,0.811244967,64.54229646,50.24852855,9.126915932,9.151335716,9.343287468,0.928482793,0.770740814,0.950104894,102.3203453,0.01421195,-0.670659028
1GZN_A,-0.976429186624148,-0.736979523229253,0.0369952068678556,0.073691980724385,0.0420021554932629,-0.0854720788133662,-0.0181144944436135,-0.0492052629772918,0.0464483079852883,0.0189675822323933,-0.136903935371648,0.333347784680186,-0.0317253498087134,-0.806141730785302,do,ci,0.6965,test,ci-do,-0.910222531,-0.537841915,0.889457945,57.46367736,38.6741535,8.972788811,8.870417595,8.767866135,0.924823999,0.766959442,0.94408497,101.6677343,0.01412746,-0.637054922
1GZO_A,-0.966787262848253,-0.770908939976667,0.0106961017228235,0.107104131919561,0.120296594853578,-0.074822152934549,0.0201008602363594,0.00212712367804505,0.0208962862755831,0.0357770121324916,-0.176986019452179,0.314280603224702,-0.0308764498643794,-0.819276199035572,do,ci,0.519,test,ci-do,-0.89383411,-0.597312289,0.841983647,61.44486517,48.16113587,9.180497169,9.395384789,9.212944031,0.879353699,0.795344696,0.929878011,101.2222488,0.014320263,-0.66024064
1H00_A,0.0550492919369424,-0.00115253319272692,-0.343853217176286,0.393878594361896,0.340759560671371,-0.0353852813701421,0.421591319784364,0.432953981076274,-0.302649873573253,-0.359450668081754,-0.133144850234675,0.0770771356474683,0.0700233590744382,0.0344743434065264,di,co,1,training,co-di,0.842986056,0.751891611,0.20196263,95.61515811,74.87476058,9.949645042,14.91068935,12.94843197,0.303597263,0.127943234,0.945417365,95.68022857,0.037236728,0.84684887
1H01_A,0.0100018398197544,0.0168507705178393,-0.386375278360202,0.446947728364422,0.310421666605039,-0.0161343122979333,0.428992061927939,0.414743939579684,-0.478350921351077,-0.403962745772272,-0.0436476997126381,0.00105931342414733,0.0483395821064784,0.0098159419537147,di,co,0.9955,test,co-di,0.7664187,0.783447214,0.125203174,101.9385519,71.19870046,10.32510185,15.0123539,12.79054165,-0.009066034,0.052777887,0.977139327,93.90414868,0.032311887,0.803320443
1H07_A,-0.0165318427317954,0.016550625721707,-0.298935615821726,0.365815965926786,0.252742647076419,-0.0252729910316878,0.381778741825453,0.445783392373798,-0.381474782468179,-0.303974246479039,-0.0486696915380315,0.0521965156163249,0.0714933860969148,0.0138487786250366,di,co,0.9975,test,co-di,0.721319281,0.78292113,0.283046438,92.27138675,64.2097004,10.14686775,14.36378098,13.05966949,0.163326865,0.221623527,0.975359299,95.09891793,0.037570602,0.810439438
1H08_A,-0.0676540179230538,0.0412805232247084,-0.325286995331256,0.367417985961159,0.253854373814579,-0.047350812822008,0.385161257386156,0.424390333419022,-0.408803861104378,-0.332720837281084,-0.0517027011828071,0.0419655946084974,0.0567521465201055,0.0103102381241613,di,co,0.9975,test,co-di,0.634426691,0.826266887,0.235477776,92.46227367,64.34440897,9.716278076,14.41024685,12.87418079,0.114694259,0.173080579,0.974284259,94.85988276,0.034222557,0.804193003
1H0V_A,0.0158912342061433,0.0378278721996144,-0.338647118355012,0.37729415998744,0.258316371807054,-0.0328745553656488,0.465597973988262,0.410670438019033,-0.429831085136704,-0.345207631716627,-0.0477379997497792,0.00453915306093931,0.0429738518265479,0.0131559878956514,di,co,0.9965,test,co-di,0.77642893,0.820215193,0.211360512,93.63905823,64.88507184,9.998612404,15.51521206,12.75522232,0.077275921,0.151994746,0.975689534,93.98545163,0.031093217,0.809216484
1H0W_A,-0.0222367303380871,0.0257109053032747,-0.346266481460916,0.367234679987009,0.240751043342862,-0.0231942804219542,0.468817761311883,0.438114298937841,-0.432623195188565,-0.349365462810825,-0.045987990087339,0.0800841665544943,0.0503184964733748,0.0171362486666579,di,co,0.9985,test,co-di,0.711622658,0.798976969,0.197606283,92.44043205,62.75667086,10.1874094,15.55944252,12.99317455,0.072307309,0.144973622,0.976309819,95.75048482,0.03276134,0.816242669
1H1P_A,0.140653252535303,0.13801750412305,0.074176130815314,-0.129603755631314,-0.159819254664369,-0.045713897301419,-0.115360592353738,-0.175000011706187,0.0766529540719611,0.135781446042331,0.0179529056073963,-0.0483127667082139,0.0119126634918456,0.118861624453813,di,ci,1,test,ci-di,0.988487491,0.995824309,0.956575752,33.24019942,14.21933684,9.748203278,7.534540653,7.677161694,0.978573731,0.964217244,0.998973453,92.75061973,0.024038569,0.995814147
1H1Q_A,0.114766484794809,0.135808243440423,0.0813170442192358,-0.150540717541016,-0.116428633500233,-0.0254172407034892,-0.149343237600846,-0.132239686401463,0.077079060865664,0.135944185450294,0.0201711352873591,0.0387970570639009,0.0126852208681967,0.12065447058542,di,ci,0.9965,test,ci-di,0.944487636,0.991951989,0.969466299,30.74547895,19.47700343,10.14405441,7.067718506,8.047915459,0.979331996,0.964492054,0.999759697,94.78585307,0.024214033,0.998978982
1H1R_A,0.0874478746168581,0.10938679343675,0.0832471030113364,-0.15246879239229,-0.125100829742788,-0.0291678285644281,-0.14174880473367,-0.128383416505484,0.0728603504496627,0.113732082573615,0.0190338243817525,0.43037965631915,0.000739253476776556,0.112567561813413,di,ci,0.924,test,ci-di,0.898054072,0.945641334,0.972950379,30.51574133,18.42618841,10.07090569,7.1720438,8.08135128,0.971824722,0.926983573,0.999356581,103.9347863,0.021500853,0.984703506
1H1S_A,0.126791140426137,0.136660064417675,0.0817950413317148,-0.153954563515914,-0.123061398746236,-0.028177249444287,-0.134095118932442,-0.108673983368191,0.0785674633345545,0.140650084923052,0.0196300185374343,0.0739208092003582,0.00794894802794195,0.120859526226974,di,ci,0.996,test,ci-di,0.964925997,0.993445033,0.970329164,30.33870592,18.67330744,10.09022522,7.277183056,8.252242088,0.981980636,0.972438674,0.9995679,95.60648418,0.023138326,0.999340958
1H1W_A,0.141644314819186,0.133849320601611,0.0927928992076356,-0.167714291301649,-0.0303189079891066,0.0169229113348425,-0.158436035511241,-0.215477207486554,0.082245388194532,0.13856963856787,0.0185694244035392,0.016085489185948,0.00246504285184316,0.121115333105822,di,ci,0.9975,test,ci-di,0.990172004,0.988518453,0.990182143,28.69918082,29.91096853,10.96982574,6.942810059,7.326203823,0.988525572,0.968925527,0.999191976,94.25522015,0.021892816,0.999792523
1H24_A,0.13619575412509,0.13748195044669,0.0793152818440162,-0.144260426852249,-0.0959045442563843,0.00838245337277629,-0.118247980531639,-0.172272080243192,0.0773825350609094,0.139582511208994,0.015596195270524,-0.0117205494193231,0.00185338649656409,0.116985998329087,di,ci,0.9995,test,ci-di,0.980911061,0.994885608,0.965852782,31.49380002,21.96391916,10.8032589,7.494876385,7.700814247,0.979872034,0.970635915,0.998138125,93.60556005,0.021753896,0.992503184
1H25_A,0.146461601656507,0.13560926381013,0.0872100127011396,-0.152428980935241,-0.101046734604479,-0.00606255814050589,-0.142678383918844,-0.146067757924861,0.083353698559433,0.140412205045242,0.0148908817201861,-0.0164342564697603,0.00578439692586504,0.119840090226513,di,ci,0.999,test,ci-di,0.998359968,0.991603224,0.980104096,30.52048502,21.34083699,10.52153397,7.159274101,7.928019047,0.990497831,0.972036978,0.997888129,93.49542903,0.022646711,0.997541391
1H26_A,0.102022090516434,0.118768305459242,0.0806578495480251,-0.161164693418429,-0.0992725783212644,-0.0148688761632986,-0.149524189659207,-0.166576547637565,0.0725449084115319,0.114889843683094,0.0190467290049434,0.377554358711359,0.00822918632121004,0.1159372260979,di,ci,0.924,test,ci-di,0.922825932,0.962084942,0.968276342,29.47959089,21.55581253,10.34978199,7.065232754,7.750197411,0.971263387,0.928938627,0.999361155,102.7005764,0.023201974,0.990651831
1H27_A,0.135381980307666,0.128716715876998,0.0837066602868964,-0.135831612195054,-0.118227234166569,-0.00818958014106371,-0.137185292855981,-0.172752409163804,0.0775261879500638,0.135618293286575,0.0138460417218173,0.0678404710447865,0.00697297924965066,0.117096960613605,di,ci,1,test,ci-di,0.979527886,0.979522191,0.973779957,32.49812608,19.25906595,10.48005009,7.234733105,7.696649551,0.980127667,0.963941736,0.997517789,95.4644232,0.022916663,0.992699061
1H28_A,0.0696571348586295,0.113613173500812,0.090453793125568,-0.138930462328908,-0.102584289884547,-0.00431259038650076,-0.13124181763253,-0.111738651020564,0.0687041693013302,0.108051839448345,0.0143367728867907,0.397722674705649,0.014679682014466,0.114897412899829,di,ci,0.9195,test,ci-di,0.867815072,0.953049195,0.985959664,32.12888603,21.15453053,10.55566406,7.31637907,8.225669861,0.96442872,0.917391627,0.997691727,103.1717888,0.024667017,0.988816293
1H4L_A,0.142077785466799,0.138625348625539,0.0606806973794997,-0.0777293388908054,-0.184769573068705,-0.0178228641905848,-0.0846320990238395,-0.18042216265332,0.0727659597575718,0.0924907779150171,0.0128558869685974,-0.187613430193777,-0.00122626274522268,0.11937135406708,di,ci,0.984,test,ci-di,0.990908776,0.996889719,0.93221423,39.421238,11.19609237,10.29216957,7.956660271,7.630148888,0.971656752,0.891114431,0.997166832,89.49599996,0.021054443,0.996713951
1H8F_A,0.146499477652544,0.139206877028572,0.0918620815894098,-0.0835943472943804,-0.105603217580945,-0.0348158620281222,-0.1170930530102,-0.0507454612210979,0.0875390572603925,0.115726904940376,0.00174484840842181,0.131854601251175,0.00911439290465736,0.118783777452182,di,ci,0.9855,test,ci-di,0.998424346,0.997909003,0.988501861,38.72239943,20.78872532,9.96075058,7.510741711,8.754511833,0.997945755,0.930352131,0.993228562,96.96004891,0.023403023,0.995676727
1HCK_A,-0.0330066466720833,0.0561012842043818,-0.448753561681113,0.480043234338925,0.433875241448966,-0.0270729329747771,0.473927809114526,0.399810627461158,-0.515274362873673,-0.519692147827554,-0.0566938703128876,0.0248807151243409,0.0451247978455711,0.0140034359523191,di,co,0.999,test,co-di,0.693316983,0.852244233,0.012599905,105.8820102,86.15764132,10.111763,15.62963963,12.66106224,-0.074771988,-0.142648638,0.972515156,94.46071175,0.031581742,0.810712448
1HCL_A,-0.0197715153204501,0.0373246679390994,-0.391481533832203,0.435328356202845,0.427934036169742,-0.0244970743984688,0.550260145422098,0.407921993687672,-0.443155468992509,-0.424464304745762,-0.0549055812609733,0.0752030720224814,0.0552271620067954,0.0103535094327012,di,co,1,test,co-di,0.715812795,0.819333193,0.115985526,100.5540585,85.43774205,10.16200066,16.67822266,12.73139191,0.053564931,0.018157917,0.973149009,95.63644296,0.033876201,0.804269388
1HOW_A,0.128593773791585,0.13692516919559,0.0782413922084494,-0.0963956288273417,-0.160419809287277,-0.0422982126997032,-0.122005278569254,0.0142963720814522,0.0816021412247418,0.0705031282191699,0.016589549377198,0.105742003894242,0.0589673754558224,0.115549937548033,di,ci,0.906,test,ci-di,0.967989941,0.9939097,0.963914231,37.19707693,14.14656729,9.81482029,7.4432621,9.318457603,0.987380902,0.853984973,0.998490216,96.34995436,0.034725682,0.989968167
1I44_A,0.107437692539898,-0.586765096616318,-0.094367913438332,0.197579179867191,0.182082118812031,0.108284174232001,0.0635487251789996,0.0376243855957603,-0.0417387762926753,-0.323411369154807,-0.0173306391982374,-0.175760024557822,-0.037918784282227,0.086180358711379,other,ot,1,training,omega,0.932030855,-0.274550972,0.652325469,72.22531914,55.64772344,12.75166893,9.992231369,9.520723343,0.767893435,0.188801018,0.98646732,89.77294285,0.012720801,0.938123299
1IA8_A,0.126036901664026,0.137093500149154,0.0871501589858829,-0.0956524194406024,-0.103385037992209,-0.0349969809057438,-0.120157470868522,-0.101513156199237,0.0867643590154109,0.0999614914833173,0.0137453241566022,0.0197424342492309,0.0194846451138535,0.112899600632026,di,ci,1,test,ci-di,0.963644014,0.994204745,0.97999605,37.28563322,21.05750342,9.95721817,7.468645573,8.314330101,0.996567165,0.903729856,0.99748209,94.34066099,0.025758325,0.98528964
1IEP_A,-0.874390502582408,-0.900768714885451,0.0659342992637002,-0.0273506240449045,-0.109496356268835,0.0576825769599097,-0.120081417560319,0.0624687292036444,0.080458377452899,0.043105108276538,0.00450868916816126,0.103475246696817,-0.0203653784411689,-0.80689339564644,do,ci,0.99,test,ci-do,-0.736786923,-0.824926263,0.941697863,45.42405788,20.31699146,11.76477242,7.469690323,9.736136436,0.985345553,0.80771929,0.994208196,96.29699386,0.016707548,-0.638381804
1IG1_A,0.145234174754155,0.14028175156693,0.0899319264073784,-0.104278409950564,-0.109553207529161,-0.0455443184385603,-0.119468478489212,-0.0712874131179155,0.08849158224199,0.121887423853163,0.0124380892129177,-0.0142602496840945,0.0116654076183688,0.120090817959555,di,ci,0.9975,test,ci-di,0.996273705,0.999793008,0.985017607,36.25781289,20.31010276,9.75151062,7.478110313,8.576402664,0.999640791,0.940755095,0.997018745,93.54622251,0.023982412,0.99798399
1IRK_A,-0.589725227055654,-0.709308809314109,-0.163588224930744,0.211738660021387,0.243887403425794,0.0310568816412168,0.0938157958994533,0.531981805998463,-0.122132181224167,-0.391828418565662,-0.0271368973451563,-0.0148794777332965,-0.0420877251591448,-0.518540826747271,other,ot,0.717,test,omega,-0.25294008,-0.489341591,0.527371191,73.91247629,63.13670542,11.24548435,10.40801239,13.80705357,0.624831869,0.073268526,0.982991525,93.53175487,0.011773947,-0.129365282
1J1B_A,0.145850676042903,0.140130094246601,0.0897447277445118,-0.0997402220908526,-0.106979164486004,-0.0605198751932669,-0.158926234115543,-0.111839512463429,0.0879269419209529,0.109301179596959,0.00861670696517141,0.0654991362708,-2.87160366159544e-05,0.119949477669926,di,ci,0.9965,test,ci-di,0.997321575,0.999527188,0.984679682,36.79855563,20.62200104,9.459438324,6.936076164,8.224795341,0.998636003,0.919501326,0.995664269,95.40972027,0.021326431,0.997734488
1J1C_A,0.146639773805996,0.140202176830603,0.090757736059526,-0.0975122716769418,-0.0986360293990912,-0.0556156810718583,-0.157545611167937,-0.113088785441051,0.0880225773316422,0.109629219037317,0.00642221287657398,0.0623934077666114,0.00326105908984788,0.11945124326374,di,ci,0.988,test,ci-di,0.998662808,0.999653532,0.986508332,37.06402459,21.63294353,9.555086136,6.955041885,8.213963509,0.998806188,0.92005527,0.994886438,95.33715805,0.022073608,0.996854976
1J3H_A,0.141809253491728,0.133603437427712,0.0747000161823975,0.00485381937664291,-0.169319622338716,0.0535006085721745,0.137703735602767,-0.138171368823975,0.0814895855084095,0.109815164548333,0.00996146236880686,-0.033128934250023,-0.0089778270605991,0.114873648660865,di,ci,0.628,test,ci-di,0.990452351,0.988087477,0.957521453,49.26134261,13.06817181,11.68321037,11.01090431,7.996484756,0.987180607,0.920369267,0.996140913,93.10537469,0.0192939,0.988774343
1J91_A,0.141032323726245,0.132694923244828,0.0929904658816711,-0.141791231693057,-0.107490884011376,-0.0530059851918792,-0.122268532063597,-0.0590149934878579,0.0863402415236667,0.134202552226561,0.0158621732660045,0.126475101765668,0.0173026099390238,0.114516154631815,di,ci,1,training,ci-di,0.9891318,0.986495063,0.990538784,31.78801423,20.55999569,9.605983734,7.439645767,8.682810783,0.99581244,0.961551044,0.9982324,96.83436232,0.025262739,0.988143274
1JAM_A,0.137776232989381,0.136452140645441,0.0920968603163547,-0.164439672757002,-0.103104360364644,-0.0571792492947485,-0.104510480169964,-0.0858621557255807,0.0855571882104587,0.132737844850088,0.0179094096354386,-0.011084322991689,0.00903613065505267,0.116701589390042,di,ci,0.9985,test,ci-di,0.983597408,0.993080591,0.988925676,29.08936436,21.09151329,9.524591446,7.683589458,8.450032234,0.994418982,0.959077665,0.998958036,93.62042484,0.023385248,0.992001129
1JBP_E,0.146593575775041,0.136960046613791,0.0889693704655849,-0.133556031947414,-0.114128332985191,-0.0574555240203703,-0.141670113309277,-0.135614747612976,0.0863833582387471,0.153503911471409,0.0183507511341286,0.0341755542857065,-0.0142864247975834,0.120765677026958,di,ci,0.999,test,ci-di,0.998584285,0.993970832,0.983280032,32.76927032,19.75573217,9.519203186,7.17312479,8.018651962,0.995889167,0.994144296,0.999114468,94.67787631,0.018088206,0.99917529
1JKK_A,0.146666611412557,0.140144255281692,0.0882434074865012,-0.0925456566822024,-0.119071443485222,-0.0438450577764553,-0.113555931319915,-0.0622351878889131,0.0881546591144035,0.120595966051723,0.0124018468015686,0.00155721247097402,0.0194920200375152,0.120507631947677,di,ci,1,training,ci-di,0.998708424,0.999552009,0.981969547,37.65581609,19.15677262,9.784651756,7.559331417,8.65489006,0.99904123,0.938574274,0.997005899,93.91578159,0.02576,0.998719774
1JKL_A,0.147270514628934,0.140261946314436,0.0914940099913712,-0.114111792675847,-0.110421314728625,-0.0455738529248652,-0.121038592576451,-0.0672270006396057,0.0884858627178838,0.123788273553604,0.0156613531788307,-0.00485434517677711,0.0134498265358115,0.120065182038934,di,ci,0.999,test,ci-di,0.999734881,0.999758294,0.98783743,35.08612708,20.20491371,9.750934601,7.456541538,8.611608505,0.999630613,0.943964966,0.99816122,93.765982,0.024387691,0.997938736
1JKS_A,0.146862446044214,0.139809974181115,0.0924972663044291,-0.108982417741893,-0.112341895420163,-0.0383665545171079,-0.110721825518294,-0.0643412875428838,0.0884678634688056,0.12454185040065,0.0147732307163194,0.0164552414746397,0.0114579323032705,0.119536810385718,di,ci,0.999,test,ci-di,0.999041285,0.998966092,0.989648476,35.69731206,19.97219584,9.891500473,7.598263741,8.636629105,0.999598583,0.945237494,0.997846428,94.26385904,0.02393529,0.997006024
1JKT_A,0.144802063166328,0.139625621135433,0.0851470471516332,-0.0365372360304536,-0.152332109726397,0.0178036657832346,-0.036535505008537,-0.0720585570458961,0.084679990339131,0.0634559409843452,0.0176774762591198,0.0311290198576993,0.00965510909871951,0.12042706352998,di,ci,0.9965,test,ci-di,0.995539243,0.998642964,0.976380097,44.32943732,15.12655851,10.98700333,8.617366791,8.569716454,0.992857992,0.842084736,0.998875828,94.6066971,0.023525831,0.99857755
1JLU_E,0.146189619081593,0.13521464098777,0.0849183509616959,-0.110722801617426,-0.134802282785075,-0.0578767818333442,-0.130702571396239,-0.14822302343789,0.0853415866526661,0.151245259513008,0.0165826343725105,0.0612433081393156,-0.0204328182654837,0.11887416086879,di,ci,0.9995,test,ci-di,0.997897678,0.990911542,0.975967262,35.48993855,17.25065775,9.510987282,7.323786736,7.909331799,0.994035315,0.990330222,0.998487765,95.31028713,0.016692231,0.995836277
1JNK_A,0.0482736776098578,-0.0767012691567397,0.048082103557367,0.0263665897607795,-0.0590888854442608,0.0846133965283971,0.0151430582355031,-0.279114186048725,0.0751803991467251,0.0501678836975125,-0.0238837247849171,-0.359275662607694,-0.0482275802618882,0.0981380637683931,di,ci,0.949,test,ci-di,0.831469514,0.619472253,0.909471654,51.8246729,26.42489377,12.29001141,9.327279091,6.774438858,0.975953292,0.81964585,0.984144601,85.48528471,0.010379457,0.959231727
1JOW_B,0.145883184046958,0.139447749839869,0.0911373761111464,-0.146942167567959,-0.13321331840744,-0.0525165633151286,-0.119317204874008,-0.21756015417326,0.0877486802352646,0.122670186133716,0.00588158985403414,-0.256966780812339,0.00279743836642306,0.117640804797424,di,ci,0.9795,test,ci-di,0.997376829,0.998331197,0.987193646,31.17426018,17.44319348,9.61552906,7.48018837,7.308143616,0.998318783,0.942076907,0.994694816,87.87562874,0.02196831,0.993659086
1JQH_A,-0.0694637901765679,0.032047315539054,-0.0533720006750987,0.235798932533535,0.25429102478579,0.0405717829660268,0.0759090741472352,0.0370691531100024,-0.0218581971483337,-0.300737385651739,0.00833652654880271,-0.341384420968378,0.00362374242524526,-0.140956461926005,di,ci,0.4595,test,ci-di,0.631350613,0.810083222,0.726329971,76.77935137,64.39731822,11.43105602,10.16202641,9.515909195,0.803271297,0.227089454,0.99556496,85.90329556,0.022155981,0.537168333
1JST_A,0.138399316598854,0.136236916988271,0.0828831130282952,-0.105979138805401,-0.121473801284601,0.00896003862834752,-0.127156077550684,-0.165109493200528,0.0802547858842197,0.134666860234899,0.0132350526723853,0.0431225145596085,0.011928848697446,0.119470620607196,di,ci,0.9995,test,ci-di,0.984656466,0.992703354,0.972293316,36.05516443,18.86567754,10.8145237,7.372505188,7.762917519,0.984983258,0.962335098,0.997301226,94.88691303,0.024042245,0.996889182
1JSV_A,-0.10826622491025,0.0293774620696182,-0.406869034578286,0.455624097170612,0.382190243156827,-0.0263607800145775,0.557770228891847,0.409009800703259,-0.412957906281879,-0.444756438513952,-0.0668627246725576,0.048366611677987,0.0660134171487286,0.0010135619079743,di,co,0.9935,test,co-di,0.565397941,0.80540359,0.088208505,102.972375,79.89494027,10.12565231,16.78138924,12.74082375,0.107302058,-0.016108407,0.96891084,95.00943608,0.036325986,0.787781976
1JVP_P,-0.00307663312228719,0.043451203772977,-0.401312876334821,0.493292036298686,0.398826592053024,-0.0476801909558876,0.487028905220575,0.469804896931229,-0.373472272495921,-0.404900386746471,0.00554527968725355,0.363374997521707,0.00202770327429122,0.0270159610835523,di,co,0.957,test,co-di,0.744189161,0.830071585,0.098238303,107.4606565,81.91077626,9.709854126,15.80961037,13.26794815,0.177567481,0.051194539,0.994575612,102.3692899,0.021793487,0.833682905
1JWH_A,0.13139329221784,0.137860992193818,0.0981540949670904,-0.141059223115562,-0.0760515024087916,-0.0169963380901306,-0.0938739836937982,-0.0723049360205938,0.0823567216702541,0.125715889596248,0.0121409527875027,0.133744122422104,0.0107114975669703,0.117837897294588,di,ci,0.998,test,ci-di,0.972748295,0.99554998,0.999860001,31.8752359,24.36952369,10.30828953,7.829703808,8.567580223,0.988723692,0.947220036,0.996913426,97.00419567,0.023765759,0.994007005
1K2P_A,0.123731134952734,0.120512411426187,-0.207203472017219,0.269197276877831,0.259636056703749,0.00449470542114601,0.348844216136788,0.435255094090248,-0.138105508891123,-0.301456532641141,-0.031166451986162,0.0283354152230343,-0.0158895614870107,0.101697106661082,di,co,0.889,test,co-di,0.959724892,0.965141954,0.448638351,80.75889404,65.04497882,10.72743511,13.91135693,12.96838379,0.596407034,0.225875066,0.981563263,94.54142734,0.0177241,0.965514354
1K3A_A,0.117432287034987,0.129579137234251,0.00613689345350033,0.105591357145596,-0.114598904072257,0.0581147388942139,-0.00368164933140676,-0.0937885173476069,0.0393040789714099,-0.0701298026251863,0.000653733458243337,-0.257572288604232,-0.0126130304025615,0.0978629582881438,di,ci,0.752,test,ci-di,0.949018712,0.981033815,0.833753511,61.26461217,19.6987128,11.77320099,9.068682671,8.381306648,0.91211071,0.616505089,0.99284182,87.86148166,0.018468269,0.958746095
1K9A_A,0.145364255602391,0.140122607799541,0.0764135327792735,-0.0890952095524782,-0.126334625884283,-0.0549766307324134,-0.160372566320683,-0.079939162643469,0.0831846590303674,0.0640499726898902,0.0138491620788898,0.016618225599365,-0.0141309481979748,0.121196170039592,di,ci,0.9995,test,ci-di,0.996494804,0.999514066,0.960614638,38.06695029,18.27668862,9.567549706,6.91620779,8.501387596,0.990197022,0.843087848,0.997518895,94.267667,0.018123518,0.999935221
1KE5_A,0.0549461940146476,-0.066073792576788,-0.446617863281296,0.478099464825984,0.444034206632468,-0.0415614149465706,0.470600762421767,0.464877098303644,-0.488058111937464,-0.487805218237373,-0.0581884931375779,0.123785047494493,-0.037653115315763,0.0166735569513195,di,co,1,training,co-di,0.84281082,0.638099747,0.016455199,105.6504025,87.38860899,9.829190254,15.58393574,13.22522163,-0.026340161,-0.088802755,0.971985392,96.77151191,0.01278114,0.815425899
1KE6_A,0.0299722802566118,-0.0389861874227281,-0.469884418779563,0.501762611572951,0.435574729522735,-0.0140108107330376,0.498176565826794,0.443703251404881,-0.51581821836094,-0.524002948398662,-0.060111098608573,0.092495308611023,-0.040956086051907,0.0175436090762383,di,co,0.9945,test,co-di,0.800362547,0.685578017,-0.025544838,108.4699585,86.36356927,10.36651707,15.96274662,13.04163361,-0.075739789,-0.149928074,0.971303931,96.04045866,0.012030966,0.816961765
1KE7_A,0.0497765929906995,-0.035032576017342,-0.459528539446882,0.494052970746591,0.442648583863582,-0.0222253140900498,0.489790845441178,0.451566588349802,-0.505958955754905,-0.515637686843965,-0.0616681567877048,0.0932927780226676,-0.0326182967598009,0.0205333927954332,di,co,1,test,co-di,0.834024026,0.692507778,-0.006850738,107.5513248,87.22071228,10.20630741,15.84755135,13.10981274,-0.058195047,-0.13580207,0.970752037,96.05909073,0.013924653,0.822239503
1KE8_A,0.0425084395123819,-0.038281762504329,-0.42898452257456,0.468457935760491,0.422135685620361,-0.0327579330638626,0.453916655380504,0.456389344695542,-0.464208353334254,-0.472687792585265,-0.0631095332299109,0.112430476533094,-0.0304783580895266,0.0161540163045692,di,co,0.999,test,co-di,0.821670313,0.68681271,0.048286338,104.5015768,84.73515257,10.00088692,15.35474491,13.15162849,0.01610093,-0.063274705,0.970241146,96.50622379,0.014410678,0.814508776
1KE9_A,-0.000877800882579786,-0.0437183043138726,-0.388251229163262,0.434537095426692,0.410905738821273,-0.0204396989767411,0.428947700227992,0.410924736829092,-0.443999463503517,-0.420225716863005,-0.0647550363221196,0.140031899859794,-0.036232493677411,0.00957125979774546,di,co,0.989,test,co-di,0.747926526,0.677283717,0.121816768,100.4597767,83.37441344,10.24113274,15.0117445,12.75742722,0.052063027,0.025315411,0.969657903,97.15110326,0.013103793,0.802888516
1KOA_A,0.0158231000089171,0.126931003133288,0.0921892910583693,-0.0430347432940055,-0.0271723249623408,0.0383120027011917,-0.0355276856595181,0.0148852617626591,0.085657188846463,0.0662100109982352,0.0115923200961306,0.0744112390616886,-0.00459796336695484,0.092448189484092,di,ci,0.989,test,ci-di,0.776313122,0.976392252,0.989092529,43.55523405,30.29224181,11.38698292,8.631211281,9.323563576,0.994596935,0.846735398,0.996718965,95.61794258,0.020288659,0.949187634
1KSW_A,0.0244488400750569,0.0253019468647537,-0.0654289639654882,0.175411341490125,0.0753033224907559,-0.0268018901928631,0.291139702688364,0.334460270155326,-0.143288066451396,-0.127296897827627,-0.0527841362549427,0.086610031288554,-0.0254183723313851,0.0393212936201517,di,co,0.9515,test,co-di,0.790974331,0.79826016,0.704565129,69.58393495,42.70927511,10.11704922,13.1186657,12.09444141,0.587184576,0.519969839,0.973900948,95.90295508,0.015559907,0.855404985
1KV1_A,-0.924395715368315,-0.941568809578562,0.0887335840760884,-0.208344817031509,0.100876771708313,0.095871126803582,-0.133798715804755,0.0554777275986811,0.0837083292842004,0.132609321519606,-0.0382294846076343,-0.0904616745109081,-0.0304987965346835,-0.847024428537923,do,ci,0.888,test,ci-do,-0.821781007,-0.896439337,0.982854398,23.8578956,45.8080247,12.50957394,7.281254768,9.675520897,0.991128903,0.958860634,0.979059795,91.76585293,0.014406036,-0.709223409
1KWP_A,0.142910470218713,0.130201717862414,0.0489626848487687,0.0286812737252554,0.068296210507831,-0.0685917912152765,-0.0390819549594457,0.0074663966719306,0.0803379106086078,0.0858959589776629,-0.0901767151708011,0.30987676700428,0.00609646406877546,0.115038732229342,di,ci,0.8585,test,ci-di,0.992324094,0.982125054,0.911061251,52.1004765,41.86021931,9.302009583,8.582386017,9.259238243,0.98513118,0.879978086,0.960647275,101.1193576,0.022717588,0.989065758
1L3R_E,0.144680240224215,0.137291873309913,0.0909285556357167,-0.10743074268549,-0.0961010695238854,-0.0671244057452137,-0.135163787916411,-0.144673022314147,0.0885458182558999,0.150493553982615,0.0132519437915467,0.0142571116723104,-0.00920261033087021,0.120174439756227,di,ci,0.999,test,ci-di,0.99533218,0.994552447,0.98681669,35.88220018,21.94010608,9.330628395,7.26250267,7.940112114,0.999737305,0.989060854,0.997307213,94.21250195,0.019242847,0.998131604
1LEW_A,0.0807766696165104,0.0801733722167729,0.0976885066732789,-0.15746659948642,0.00601282484366562,0.0654342583926247,-0.0645527719706136,0.0654159270447253,0.0821584377165465,0.131906106185866,0.018301271186266,0.0036137975486554,0.0751935019759192,0.074178764305665,di,ci,0.887,test,ci-di,0.886714995,0.894437003,0.999019536,29.92023317,34.31330555,11.91595554,8.232491493,9.76169014,0.988370842,0.957673149,0.99909693,93.96383163,0.038410976,0.916937395
1LEZ_A,0.0337477324544932,0.0845621132464378,0.0935082565245145,-0.157133321573443,0.00618459236814355,0.0860013711015561,-0.0510826210261713,0.0643627671319245,0.070890138484427,0.104490006126555,0.0169819244045055,0.068253961575754,0.0495189314661335,0.0713934918315121,di,ci,0.9615,test,ci-di,0.8067797,0.902129445,0.991473483,29.95994453,34.33411872,12.31708145,8.417531967,9.752558708,0.968318693,0.911376935,0.998629292,95.47408399,0.032579742,0.912020672
1LP4_A,0.146232153534504,0.137802921737523,0.0934720039391913,-0.156765775958609,-0.0746670125056866,-0.0331954741479739,-0.136759206808318,-0.099795763158156,0.0876282105812248,0.133152307141577,0.017531804110187,-0.0134533242690583,0.0116809147712862,0.120436313172264,di,ci,0.996,test,ci-di,0.997969974,0.995448196,0.991408041,30.00373902,24.53728313,9.992353439,7.240586281,8.329220772,0.998104405,0.959777547,0.998824195,93.56507551,0.023985934,0.998593878
1LPU_A,0.128708526681128,0.133435130436255,0.0904195237353712,-0.168443106697637,-0.0977643017662509,-0.0558129363221587,-0.12276199351679,-0.0774678940963925,0.0838903195061869,0.140762034073009,0.0187292679390676,0.0662031948527602,0.0162220933623154,0.11739055291565,di,ci,0.999,test,ci-di,0.968184987,0.987792474,0.985897802,28.61233963,21.73857127,9.551239014,7.43286705,8.522814751,0.991452758,0.972627717,0.999248632,95.42616989,0.025017331,0.993217327
1LR4_A,0.133425392532094,0.135863346018528,0.0930395106295242,-0.167698556355943,-0.0940557149770833,-0.051636444965263,-0.108738017468302,-0.0807365944182808,0.0857524235870121,0.135119702875609,0.0176431692591195,0.0162091974904933,0.0124587600779763,0.117986842707175,di,ci,0.9985,test,ci-di,0.976202265,0.992048571,0.990627318,28.7010557,22.18794287,9.632694244,7.625515461,8.494473457,0.994766407,0.963099791,0.998863668,94.25811047,0.024162599,0.994269932
1LUF_A,-0.724625753132731,-0.750394609921917,-0.0080305124129614,0.131753495477038,0.12541804196459,-0.0133508321060273,-0.035039014454607,0.114467659001714,0.0274126016793451,-0.119981456758535,-0.0303749872391124,0.148976190641406,-0.037622479662725,-0.713023940795054,do,co,0.482,test,co-do,-0.482231108,-0.561355441,0.808178966,64.38193274,48.78170457,10.37938881,8.637924194,10.1869936,0.890949604,0.532323063,0.981843795,97.36007761,0.012788098,-0.472678049
1M14_A,0.13923222609572,0.138026660500802,0.0665233924189162,-0.0101308819219145,-0.116345278610995,0.0563011053994951,-0.0611505399127899,-0.112391775111843,0.0798551109568809,-0.00379962777908958,0.00780710408465106,-0.16952409356538,-0.0129065963936948,0.117253785896609,di,ci,0.986,test,ci-di,0.986072166,0.995840358,0.942761275,47.47585715,19.48710359,11.73782921,8.27922821,8.220006943,0.984272029,0.728513579,0.995377308,89.9186391,0.018401594,0.992975898
1M17_A,0.0944388463811616,0.140149464187472,0.0784231143721489,-0.0662269922826835,-0.100139031901464,0.0176943292348107,-0.122818261171957,-0.133427034868132,0.0835625994289332,0.0380215735502526,0.0154379373052261,-0.114471591930193,-0.00644788481533259,0.116686308899415,di,ci,0.999,test,ci-di,0.909936658,0.999561139,0.96424227,40.79178735,21.45082385,10.98487091,7.432094097,8.037620544,0.990869574,0.799134976,0.998082031,91.20488538,0.019868503,0.991974155
1M2P_A,0.134846542522567,0.137039725756443,0.091923491946651,-0.145182596824187,-0.113705554358617,-0.0553770090701544,-0.110635636427922,-0.072707281625901,0.0853608368017896,0.131711054587458,0.0142063780737958,0.0309417282444197,0.0116351858416438,0.118026757564801,di,ci,1,training,ci-di,0.9786178,0.994110491,0.988612717,31.38391988,19.8069605,9.55974102,7.599447727,8.564091682,0.994069571,0.957343775,0.997645509,94.60232122,0.023975548,0.994340392
1M2Q_A,0.111089540309507,0.136038877014913,0.095842761926268,-0.172214806031466,-0.0965953831735295,-0.0527767993952836,-0.126909242689838,-0.0646033951221541,0.0852985620973374,0.122223640828853,0.0189014264462243,0.166104638876265,0.0130492382942624,0.11744980489597,di,ci,1,training,ci-di,0.938237917,0.992356236,0.995687657,28.16292698,21.88020981,9.610453606,7.375895977,8.634356499,0.993958752,0.941322848,0.999309653,97.76026656,0.024296709,0.993321922
1M2R_A,0.129282811219253,0.136164592501086,0.0954329684452857,-0.164181943615035,-0.0980933590430635,-0.055869560422446,-0.0996681639619827,-0.0761062106416437,0.0865679986155465,0.128624607350147,0.0181706280989288,0.0774118926342401,0.0176902315237467,0.117217995649803,di,ci,0.9985,test,ci-di,0.969161101,0.992576586,0.994947911,29.12007379,21.69869921,9.550134659,7.750108719,8.534621239,0.996217738,0.952131844,0.999050624,95.68804983,0.025350776,0.992912719
1M52_A,-0.332225904581068,-0.972686684914044,0.0692938046634008,-0.0396995811954682,0.0515515202934925,0.058603671827264,-0.164829235511825,-0.13854814153475,0.0796559408084872,0.0547842116512162,0.0104056082390429,0.153164894973502,-0.00256484441187935,-0.483673554092108,other,ot,1,training,omega,0.184732671,-0.950981733,0.947762334,43.95263159,39.83125554,11.78273678,6.854986191,7.993217945,0.983917602,0.827441215,0.996298339,97.45794247,0.020750423,-0.067815569
1M7Q_A,0.0797394651937414,0.0951419794006071,0.0908548771669482,-0.184512809159742,0.0467028674605893,0.0769935437721562,-0.111026108271002,-0.031755806397091,0.0776075925464022,0.110181602103577,0.018203118182153,-0.0453395964511824,0.0344746419665089,0.116131411370407,di,ci,0.9485,test,ci-di,0.884952054,0.920673489,0.986683688,26.69757206,39.24374148,12.14139938,7.594083786,8.919161797,0.980272528,0.920988052,0.99906214,92.82008486,0.029162868,0.990994618
1MQ4_A,0.146518576855056,0.138819653362736,0.0838470572066772,-0.13731740631415,-0.115180359504067,-0.0282653639082282,-0.127433736367832,-0.241122612644818,0.085000068462335,0.146673769727542,0.0156866207357391,-0.209729795881144,-0.0252969788864427,0.119109852834715,di,ci,0.9965,test,ci-di,0.998456809,0.99723029,0.974033397,32.32108793,19.62825751,10.0885067,7.368690968,7.103845119,0.993427577,0.982610573,0.998170176,88.97927334,0.015587478,0.996252334
1MQB_A,0.121632565436575,0.133373442272232,0.0628199882431134,-0.0128950008960774,-0.103066533194676,0.0670558199735121,-0.119728642606818,-0.131953270905369,0.0584638688299511,-0.00614527227425997,0.0150058270979837,-0.143195765107485,-0.0081635254148527,0.112689775147992,di,ci,0.992,test,ci-di,0.956157944,0.987684349,0.936076009,47.14650162,21.09609683,11.94758129,7.474536419,8.050398827,0.946205914,0.724552605,0.997928871,90.53377399,0.019478845,0.984919244
1MRU_A,0.0840726843524896,0.134580010272093,0.0400060876150232,0.0629480794301722,-0.0776575822451162,0.0276728344041605,-0.0965406055152166,-0.0720165407098261,0.0708281076661472,0.00967106882861058,-0.014353070906834,-0.0269682442481319,0.0297603882266915,0.0940805774348535,di,ci,0.907,test,ci-di,0.892317246,0.989799182,0.89489309,56.18349972,24.17491407,11.17948437,7.793072224,8.570080757,0.968208308,0.751260879,0.987522709,93.24931301,0.028092162,0.952069219
1NA7_A,0.145202077998062,0.137582062420846,0.0911182360623169,-0.0894953068530249,-0.120003474371531,-0.0486152219492684,-0.0923848519844463,-0.0418885792058772,0.0837012717578447,0.117950153482723,-0.0246051197415052,0.110998566775476,0.0241871253934491,0.117305043575612,di,ci,0.984,test,ci-di,0.99621915,0.995061081,0.987159095,38.01927714,19.0438379,9.691617966,7.850160122,8.831305504,0.991116344,0.934106421,0.983888905,96.47276866,0.026826357,0.993066381
1NVQ_A,0.130838839950839,0.128477915217486,0.0938909572334178,-0.0900960509798642,-0.100683346303476,-0.0444053820273085,-0.126791292325723,-0.0698785436187824,0.0869129559380774,0.0954546793757337,0.00836106621048042,0.204708494731083,0.0314931958873204,0.112155785617355,di,ci,0.998,test,ci-di,0.97180589,0.979103629,0.992164322,37.94769614,21.38486896,9.773723602,7.37751627,8.588618279,0.996831596,0.896119425,0.995573658,98.66220679,0.028485719,0.983976615
1NVR_A,0.131085438701325,0.134524947630834,0.0885374399844787,-0.090940685590184,-0.113079085853928,-0.0381193253340907,-0.118280331814535,-0.0611725687846723,0.0873540459967873,0.0952478763825017,0.0117674945722842,0.0863863606201771,0.026637299583802,0.114103433531095,di,ci,0.999,test,ci-di,0.972225035,0.98970267,0.982500325,37.84705464,19.88287005,9.89632225,7.494431973,8.664103508,0.997616524,0.895770207,0.996781055,95.89772924,0.027382843,0.987414715
1NVS_A,0.113746934029145,0.134051680600661,0.0875946467483085,-0.0861600372464579,-0.112448536408029,-0.0352912501541812,-0.113364322771738,-0.0946596427239309,0.0859465749625828,0.0935572531188256,0.00958993110103904,0.0952465330760485,0.0130617866718362,0.111611097930513,di,ci,0.9995,test,ci-di,0.942754701,0.988873143,0.980798425,38.41668749,19.95927409,9.951478958,7.561963558,8.373753548,0.995111903,0.892915335,0.996009225,96.10473825,0.024299559,0.983015101
1NY3_A,0.144859486678105,0.139903004781936,0.0689073502868505,0.0305495544736182,-0.0134930900763829,-0.0202864523511726,-0.0413237056934439,-0.00185200579383767,0.0573728333609574,0.0652636873516455,0.0104722247591095,0.287717528508886,-0.0277807695198748,0.107548777741168,di,ci,0.904,test,ci-di,0.995636846,0.999129153,0.947064719,52.32308942,31.94976259,10.24412155,8.551590919,9.178442955,0.944264396,0.845137388,0.996321951,100.6016293,0.015023357,0.97584406
1O6K_A,0.141822915866763,0.129763136553582,0.0962405504291548,-0.135737640441899,-0.0812489852229473,-0.0721870788460861,-0.154025324575351,-0.155908725703609,0.0880356336711078,0.153157209792768,0.0166125401455371,-0.00528897036539507,-0.0306733642799622,0.120351505146357,di,ci,0.9985,test,ci-di,0.990475573,0.981356323,0.996405732,32.50932318,23.7397417,9.231889725,7.003400326,7.842692852,0.998829422,0.993558838,0.998498365,93.75582742,0.014366388,0.99844417
1O6L_A,0.143290722791494,0.13186857569958,0.0960890603578643,-0.134401162303191,-0.0817193275416049,-0.0687720299327092,-0.150168890004056,-0.152609448051763,0.0880891835444269,0.151479807736552,0.0167582264009665,-0.0111653288357987,-0.030162905086141,0.1205351480473,di,ci,0.999,test,ci-di,0.992970411,0.985046668,0.996132267,32.66856975,23.68275005,9.298494339,7.056376457,7.871299267,0.998924715,0.990726292,0.998550003,93.61853222,0.014482324,0.998768347
1O6Y_A,0.146781605520503,0.140176193348022,0.0793252066830897,-0.0543900086788126,-0.0767349985367531,-0.018777405760403,-0.154224708577901,-0.173745624149658,0.0819465371595166,0.0754919168805441,0.0186816782617644,-0.031216530860594,0.0131008539540158,0.113853737942114,di,ci,1,test,ci-di,0.99890388,0.999607989,0.965870698,42.20221,24.28670407,10.27355289,7.000661373,7.688037872,0.987993761,0.862409294,0.999231764,93.15005607,0.024308432,0.986973938
1O9U_A,0.147280588144795,0.140050824741884,0.0941428739792518,-0.140233192429863,-0.0804449228618507,-0.0332902876943649,-0.135415447676293,-0.0773874909691535,0.0857035952151215,0.118935415320397,0.0166992189252256,0.128001150396321,0.0072688215605052,0.119142458276956,di,ci,0.9995,test,ci-di,0.999752003,0.999388247,0.992619074,31.97366067,23.8371704,9.990504265,7.259045601,8.523511887,0.994679516,0.935770184,0.998529088,96.87001691,0.022983855,0.996309891
1OB3_A,-0.0789900779682286,-0.00932435529504792,-0.56855362457968,0.602522284078635,0.521656873585535,-0.0184065130453609,0.550620035718559,0.398473362182049,-0.592577181538743,-0.605072465356408,-0.0541128892487098,0.0484363279280418,0.0368103441328128,0.00548300741371429,di,co,0.945,test,co-di,0.615158739,0.737568308,-0.203659312,120.4758655,96.79419231,10.28078651,16.6831665,12.64946747,-0.212333798,-0.286826163,0.973429976,95.01106493,0.029693355,0.795671698
1OGU_A,0.123571232449786,0.135570236383095,0.076684752993647,-0.115910853947156,-0.145493990006751,-0.0186899265746129,-0.115694275834004,-0.16539612875292,0.0749353783979321,0.134135758065858,0.0176317881375732,0.0331564690770139,0.00173300132476707,0.11956556369864,di,ci,1,test,ci-di,0.959453105,0.991534818,0.961104236,34.87176193,15.95513742,10.27525902,7.529956818,7.760432243,0.975517273,0.961438252,0.998859634,94.65406641,0.021726554,0.997056781
1OI9_A,0.124043692816453,0.133297152626759,0.080614089073443,-0.156243281983308,-0.115081298986848,-0.025107030639344,-0.145049123247426,-0.151166371562439,0.0783925334486722,0.139021586411282,0.0176038431675894,0.0639990956085573,0.00655456790900734,0.119458924862795,di,ci,0.9975,test,ci-di,0.960256148,0.987550631,0.968197347,30.06599621,19.64026073,10.15010452,7.126707077,7.883811474,0.981669345,0.969688709,0.998849729,95.37467333,0.022821633,0.996868536
1OIQ_A,0.0196515096480868,0.023808938682753,-0.290681823055261,0.345645562200784,0.220174585032425,-0.0235942185257804,0.361650957003799,0.457901825764587,-0.374532745206263,-0.287933985757457,-0.0328905282650491,0.141118009569782,0.0678933578386143,0.0267016363949135,di,co,0.996,test,co-di,0.782820287,0.795643264,0.297945919,89.86800467,60.26340954,10.1796093,14.08728409,13.16474247,0.17568035,0.248709923,0.98095217,97.17647912,0.03675296,0.833128041
1OIR_A,0.029963593452401,0.0142661616758193,-0.552458739736677,0.596108568204061,0.480145395908158,-0.00970884655758623,0.543359876631986,0.405131311925943,-0.611248832099453,-0.631712793924115,-0.0579755894253221,-0.0334559044686011,0.0265857279534437,0.0263739810728707,di,co,0.96,test,co-di,0.800347782,0.778916996,-0.174605344,119.7116463,91.76422262,10.45041943,16.58343315,12.70719528,-0.245560349,-0.33181237,0.972060855,93.09773536,0.02737113,0.832549645
1OIT_A,0.0388617585233071,0.00965899918866681,-0.358084672489817,0.401174998325154,0.303013814018901,-0.0262731054769105,0.419952650710063,0.446719302877605,-0.291612059136885,-0.375166436573973,0.000366841170739686,0.0617114652669969,0.0473720405543893,0.0229271660024787,di,co,1,training,co-di,0.815472033,0.770841712,0.176272465,96.48455303,70.30108669,10.12736225,14.88817883,13.06778431,0.32323926,0.101404792,0.992740132,95.32122515,0.032092138,0.826465129
1OIU_A,0.12552484970897,0.135202812264489,0.0779385007002875,-0.138881961856382,-0.129942107683004,-0.0225293139128988,-0.133173072209592,-0.148350062584104,0.0754422418599626,0.13798246440879,0.019651604298701,0.0636709612054313,0.00403377937496041,0.119800343049811,di,ci,1,test,ci-di,0.962773677,0.990890809,0.963367461,32.13466505,17.83956797,10.20037842,7.289849281,7.908230305,0.976419246,0.967933995,0.999575551,95.3670068,0.022249109,0.997471227
1OIY_A,0.127283615448575,0.131492517234853,0.0826156365101964,-0.163552549227753,-0.108928694614735,-0.0306334537141129,-0.148996398335975,-0.161509501352614,0.0788687830146277,0.139904244430672,0.0174648490341994,0.0485087817238209,0.011658305676956,0.119825260661612,di,ci,0.9995,test,ci-di,0.965763059,0.984387525,0.971810476,29.19506858,20.38577535,10.04232121,7.072483063,7.794131279,0.98251684,0.97117921,0.998800463,95.01275774,0.023980799,0.997515213
1OKV_A,0.116804629100913,0.134232374860717,0.065645525002633,-0.138184513627504,-0.100386771252193,0.0148709485502167,-0.111305710951743,-0.249171503758301,0.0605520986626599,0.142002827160471,0.0127982055035474,-0.106641079073987,0.0287995875749762,0.119410867850065,di,ci,0.997,test,ci-di,0.947951879,0.989189858,0.941176577,32.21776872,21.42080513,10.92980576,7.590242863,7.03405714,0.949921958,0.974722983,0.997146387,91.38783743,0.027873944,0.996783703
1OKW_A,0.134914796740657,0.135350044011747,0.0623947424590992,-0.127805044159746,-0.105975801761264,0.0256200399640373,-0.0807495959481799,-0.201764406134144,0.062935926403537,0.138466209238379,0.0180346245428416,-0.0986952631544723,0.0243390972532159,0.117333829744931,di,ci,0.998,test,ci-di,0.978733812,0.991148872,0.935308369,33.45452289,20.74357908,11.13944817,8.009994507,7.445100784,0.954164024,0.968750871,0.999002418,91.57348342,0.026860873,0.993117196
1OKY_A,0.144229903115166,0.135789162756422,0.0955903876052457,-0.0604713624309001,-0.0916815480974214,-0.0210868177076192,-0.133677328974002,-0.165691673471342,0.0858636643410327,0.118096925111507,0.000761334993853407,0.12678381525928,0.0215857894841972,0.118204103933775,di,ci,0.9925,test,ci-di,0.99456674,0.991918545,0.995232079,41.47759304,22.47562204,10.22851181,7.282922268,7.75786972,0.994964362,0.934354267,0.992879959,96.8415751,0.026235539,0.994653454
1OKZ_A,0.146535075605512,0.135085998701306,0.0979588156150316,-0.0986921750710251,-0.0771942190960145,-0.0300548906736877,-0.145197897567842,-0.116898529461537,0.0842783379107774,0.131902583254611,0.0108284927974364,0.152049663529445,0.0284604071306275,0.118821292093348,di,ci,0.997,test,ci-di,0.998484852,0.990686062,0.999507489,36.92343451,24.23106005,10.05360508,7.124663353,8.180931091,0.992143244,0.9576672,0.996448229,97.43188621,0.027796909,0.99574295
1OL1_A,0.13039089914071,0.133401794009785,0.0709446650354827,-0.174017817992067,-0.0820289588153066,-0.0165734176839906,-0.151933528398463,-0.242444204448762,0.0675942326539803,0.141086365227014,0.0191919582098794,-0.0690138529286343,-0.00039414240332155,0.117550753910215,di,ci,1,training,ci-di,0.971044523,0.987734043,0.950742414,27.94809109,23.64523185,10.31653786,7.032135487,7.092386246,0.962453567,0.973175399,0.999412631,92.26695969,0.021243435,0.993500123
1OL2_A,0.12674782819096,0.13456176198607,0.064825141992792,-0.135439786047003,-0.11477729209836,-0.0167913570576469,-0.156077549446167,-0.226225817530935,0.0676875696903728,0.139732488355828,0.0150791837021786,-0.0435407147515007,0.0102500078662633,0.119948912313299,di,ci,1,test,ci-di,0.964852379,0.989767197,0.939695648,32.54481369,19.67709742,10.31228733,6.975208759,7.233007908,0.962619662,0.970889174,0.997954872,92.86211392,0.023660945,0.99773349
1OL5_A,0.146889976124094,0.138119461750021,0.0795235012672917,-0.0796899718900235,-0.122872443303234,-0.0186030344699229,-0.0892802726653062,-0.20543924653313,0.0842751179389629,0.138817382534755,0.0115531914955544,-0.174768524958807,-0.0161760343426101,0.117810710325426,di,ci,0.9975,test,ci-di,0.999088078,0.996003017,0.966228653,39.18762095,18.69620328,10.2769537,7.892807961,7.413238049,0.992137514,0.96934388,0.996705096,89.79610824,0.017659036,0.993959013
1OL6_A,0.10417545014541,0.131005466287522,0.0695721444374849,0.033751527971154,0.00271188016814985,0.0240325116539792,0.0228557885566935,-0.207385310014329,0.0847143147891138,0.0915367433778809,-0.0208638906080691,-0.269800125951551,-0.0166476772218032,0.111586148595294,di,ci,0.903,test,ci-di,0.926486007,0.983533838,0.948264784,52.70461702,33.91332818,11.10848618,9.433229446,7.396364689,0.992919073,0.8895034,0.985214971,87.57579055,0.017551916,0.982971059
1OL7_A,0.144344068255477,0.136084609267877,0.0864724635415902,-0.10480596234231,-0.126475702707262,-0.0315713698650049,-0.0879305431211006,-0.207698563267331,0.0868271984793174,0.142929792154733,0.0159915608751342,-0.153284376110527,-0.0310679204943969,0.117555754880455,di,ci,0.9995,test,ci-di,0.994760787,0.992436394,0.978772696,36.19495297,18.25959426,10.02402878,7.911349297,7.393648624,0.996678989,0.976288303,0.998278261,90.29806375,0.014276776,0.993508951
1OM1_A,0.131311406806607,0.13492065160067,0.0922647294743211,-0.143826553818674,-0.112566839385451,-0.0607656374426358,-0.10876297518307,-0.0783456189702945,0.0854313182197458,0.131769949541572,0.0135777248691823,0.014730236272737,0.0130828855579181,0.116541909565914,di,ci,1,test,ci-di,0.972609114,0.990396247,0.989228708,31.54549768,19.94493925,9.454645157,7.625172615,8.51520443,0.994194994,0.957443228,0.997422685,94.22355603,0.024304351,0.991719253
1OMW_A,0.0500776506199513,0.140296932132648,0.0567302098035268,-0.0889665233642561,-0.108032146187261,0.0124881888951139,-0.124509796740702,-0.163306747495525,0.0595235413239119,0.125806273598356,0.00810095651763164,-0.0633882268532379,0.00278049585522874,0.117390830495557,di,ci,0.992,test,ci-di,0.834535735,0.999819616,0.925082937,38.08228375,20.49441064,10.88333416,7.408857346,7.778548241,0.948091621,0.947372663,0.995481463,92.39839678,0.021964462,0.993217817
1OPJ_A,-0.88154549168262,-0.90787306617015,0.075009883773304,-0.0658568465848955,-0.118500562485216,0.0500459034328659,-0.143089891025956,0.0667006170915061,0.0796418634064061,0.0758447453446543,0.0179368044520509,0.159606414109028,-0.0206369385406833,-0.801678308197051,do,ci,0.999,test,ci-do,-0.74894829,-0.837378538,0.958080816,40.83589165,19.2259466,11.61583233,7.153621197,9.772829056,0.983892551,0.863005098,0.998967746,97.60844208,0.016645871,-0.629175832
1OPK_A,-0.490571078572284,-0.882054970055888,0.0746257743311029,-0.0542797316250969,0.0357940745344832,0.0882594403710802,-0.148091533873521,-0.07392619721453,0.0789059273282344,0.0644931348200589,0.0159988877895259,0.180374080557376,0.0082214503565093,-0.435522519382981,other,ot,0.7435,test,omega,-0.08440733,-0.792125422,0.957387434,42.21534994,37.92191675,12.36112118,7.084913254,8.553523064,0.982582939,0.843836194,0.998280858,98.0936577,0.023200217,0.017183404
1OPL_A,-0.490732418972253,-0.881754196539693,0.0752920503384308,-0.0538904183618399,0.0425877157994861,0.0955485454793643,-0.148037348903349,-0.0650886735794497,0.0792600174573847,0.0612731016300964,0.0159956066183911,0.172561679759087,0.00804946713671693,-0.435839789251081,other,ot,0.7545,test,omega,-0.084681561,-0.791598236,0.958590174,42.26173813,38.74510618,12.50328255,7.085657597,8.630148888,0.983213049,0.838398683,0.998279695,97.91112882,0.023161156,0.016623341
1OUK_A,0.0870346557250564,0.087548467932578,0.0978496346297112,-0.137399701654623,-0.019421804947117,0.0730626681763584,-0.0727267512835028,-0.0461389454793577,0.0820428654541932,0.119464122677874,0.0116376132357694,-0.0111138804389448,0.0333606102143299,0.111141689347919,di,ci,0.9865,test,ci-di,0.897351722,0.90736383,0.999310399,32.31128212,31.23137679,12.06473446,8.120204926,8.794452667,0.988165179,0.936662986,0.996735019,93.61973426,0.028909848,0.982186474
1OUY_A,0.0934927854496167,0.102098864451709,0.0958982404250142,-0.170384585475474,0.0216335020038054,0.0577158272850274,-0.109851499194378,-0.0462131891062793,0.078585895846856,0.124915456993676,0.018429338427304,0.012411034273448,0.0152763507636886,0.117725208916242,di,ci,1,training,ci-di,0.908328634,0.93286729,0.995787805,28.38100488,36.20607201,11.76542091,7.610219479,8.793808937,0.982013437,0.945868385,0.999142323,94.16937021,0.024802533,0.993808081
1OVE_A,0.0061915133241148,-0.00728987650767813,0.0952454241081847,-0.157695918561527,0.0322626117681915,0.0843390773724834,-0.112297285285011,-0.0694529901474698,0.0822690204274616,0.110442616429593,0.0191042383707337,-0.0168781056808786,-0.00936216405245532,0.0286866811199806,di,ci,0.959,test,ci-di,0.759942271,0.741134276,0.994609362,29.89290891,37.49400737,12.28466129,7.576621532,8.592308044,0.988567626,0.921428814,0.999381539,93.48505894,0.019206609,0.836632156
1OZ1_A,0.137755311705416,0.0993927374860384,0.0949643527320984,-0.145420934152866,0.0196770637623729,0.107853821225313,-0.080936136605272,-0.0114013884835098,0.0768846998828529,0.134414240777508,0.0153469532227414,0.0887094810420906,0.0380955885903718,0.111842178104558,di,ci,0.9535,test,ci-di,0.983561848,0.928124079,0.994101981,31.35552106,35.96900926,12.74327564,8.007431984,9.095644951,0.978986127,0.961908512,0.998049782,95.95200661,0.029985261,0.983423017
1P14_A,-0.19269864655698,0.0737856066201024,-0.120367367217184,0.19950660690076,0.10335697010445,0.0190151668541142,0.0698605609154509,0.141084281243461,-0.0701576473651182,-0.340512404078485,-0.0272451280305194,-0.0778392248266922,0.0197977733651833,-0.0147279300295317,di,co,0.5805,test,co-di,0.421887776,0.883240736,0.605392092,72.45497957,46.10855177,11.01063156,10.07893753,10.41777325,0.717321523,0.159923345,0.982953163,92.06076376,0.025829443,0.75999419
1P2A_A,0.0877655663142069,0.0853967231546116,-0.384794879027477,0.458427666556123,0.359495151453835,-0.0762545762125345,0.417698125640932,0.496148742784632,-0.316677608853536,-0.349057667937261,0.00256006567463304,0.156246074592046,0.0461090089266056,0.0684301563790334,di,co,0.9735,test,co-di,0.898594054,0.903592322,0.12805606,103.3064312,77.14496292,9.152560234,14.85720825,13.49636269,0.278634646,0.14549338,0.993517513,97.52993113,0.031805277,0.906789622
1P38_A,0.107056301533921,0.0585515877151652,0.0966174228710402,-0.132450703625545,-0.00219618535548919,0.129585150621674,-0.0417031045097092,0.0610355519030205,0.0792896816584569,0.127218334204891,0.016974233542499,0.0770904189075628,0.0294816425299137,0.0789505866677676,di,ci,1,training,ci-di,0.931382603,0.856539045,0.99708605,32.90097449,33.31861505,13.16710758,8.546379089,9.72371006,0.983265837,0.94975714,0.998626566,95.68053892,0.028028853,0.92536089
1P4F_A,0.140433747906558,0.137127347196727,0.0944690414398223,-0.118999415957027,-0.117047800809994,-0.0352545275904524,-0.084328545247278,-0.0691565654345261,0.0878336908628655,0.127143597015626,0.0180248600258183,0.0813135471495294,0.0139305923056477,0.118582661179348,di,ci,0.9995,test,ci-di,0.988114398,0.994264071,0.993207861,34.50374775,19.40197857,9.952195168,7.960830212,8.594878197,0.998470061,0.949630935,0.998998957,95.77920806,0.024496883,0.995321705
1P4O_A,-0.207086029389709,-0.0749327783221092,-0.0601643071533712,0.227554528640265,0.281836529484967,-0.0178613956819304,0.11835550610767,-0.00149882604758809,-0.0962654221612626,-0.302227330338897,-0.0628337878961079,0.0304463694311571,-0.0389511459096287,-0.361384742138001,other,ot,0.722,test,omega,0.397433477,0.622572006,0.714068718,75.79699857,67.73502291,10.29141808,10.74511623,9.181505203,0.67086225,0.224573458,0.970338883,94.59074766,0.01248633,0.148055668
1P5E_A,0.133579988230168,0.132726287932154,0.0806639653229398,-0.178745275122605,-0.0845527881831178,-0.0265449794015871,-0.163459269054035,-0.202279382042208,0.0761426762035178,0.139623516139039,0.0158103713887835,-0.0189469146963169,0.00649520747867424,0.119556517992615,di,ci,0.999,test,ci-di,0.976465032,0.986550038,0.968287382,27.38479618,23.33941799,10.12205982,6.873805523,7.440635681,0.977665682,0.970705158,0.998214039,93.4367233,0.022808151,0.997040813
1PF8_A,0.0633932147773594,0.0885399229573857,-0.353640490091785,0.404260838896403,0.29819437842748,-0.0618341604747588,0.384992766641415,0.431464048857678,-0.308450791598642,-0.343178303692054,0.0104470164494875,0.0827079410600776,0.00817988660763344,0.0695775754107079,di,co,0.9775,test,co-di,0.857168259,0.90910162,0.18429496,96.85224294,69.7171129,9.433805466,14.40793228,12.9355135,0.293274421,0.155421572,0.996313016,95.81178667,0.023190777,0.908815112
1PHK_A,0.147371061519528,0.139587624079027,0.0932513191928062,-0.113864391774052,-0.0896714763735315,-0.0410545852691903,-0.125447637364346,-0.122663686011181,0.0886545010148595,0.110708365897367,0.0144656808750327,-0.00742995925083695,-0.00922755298313523,0.118730038548706,di,ci,0.999,test,ci-di,0.999905781,0.998576364,0.991009668,35.11560586,22.71918359,9.839075089,7.395974159,8.130944252,0.999930708,0.921877572,0.997737418,93.70580537,0.019237182,0.995581864
1PJK_A,0.138949363394137,0.13364493979815,0.0971367263926238,-0.145003562049216,-0.0964379020380998,-0.0528614421846215,-0.135602127154786,-0.0812113137486512,0.0863402949088888,0.12678747598171,0.0182069071871695,0.181155958884263,0.00436324253183359,0.115032219864834,di,ci,1,test,ci-di,0.985591383,0.988160221,0.99802348,31.40525257,21.89929189,9.608802795,7.256481171,8.490357399,0.995812535,0.949029571,0.999063483,98.1119255,0.022323937,0.989054262
1PKD_A,0.131572398059051,0.13553558432281,0.0808511944538881,-0.176629333808244,-0.0784861970188605,-0.00539025747594335,-0.126907437647646,-0.176291906174696,0.0735735393656915,0.141096730307825,0.0114871110223626,0.0185345024704712,0.0150526021841999,0.120229329766582,di,ci,0.9995,test,ci-di,0.973052722,0.991474081,0.968625362,27.63691882,24.07451034,10.53464603,7.375920773,7.665960312,0.973093855,0.973192902,0.996681674,94.31243888,0.024751715,0.998228499
1PKG_A,0.145518265904583,0.138308179322452,0.0883290687747606,-0.119550999037023,-0.0585884873142085,-0.0346985064133323,-0.215027136680687,-0.204703904542161,0.0623408194172478,0.107632405731763,-0.0405117408548674,-0.0797139873904169,0.00108369543382724,0.119385162251222,di,ci,1,training,ci-di,0.996756576,0.996333795,0.98212418,34.43802448,26.4855273,9.963039398,6.165413857,7.419613838,0.95310502,0.91668335,0.978250857,92.01696182,0.021579083,0.996738326
1PME_A,0.138357938817605,0.139548092877205,0.0722999866784283,-0.108126702838745,-0.134461435434807,0.0275519577384267,-0.0256895581947513,-0.180324216033724,0.0758517997967781,0.132598512297185,0.0187215150084755,-0.231979361401197,-0.0151394987285629,0.119009905940582,di,ci,0.9955,test,ci-di,0.984586136,0.998507075,0.953188997,35.79927382,17.29195842,11.17712688,8.766358376,7.630998135,0.977148062,0.958842381,0.999245884,88.45943464,0.017894455,0.996075902
1PMN_A,0.0224182953253361,-0.136718360864144,0.0192964711327765,0.0767460743675292,-0.0256792700069117,0.117487447268803,0.0937978153614048,-0.249490311472137,0.0351632660236328,-0.0103461708921413,-0.023514995067396,-0.510104685411203,-0.0652296720335088,0.0896905152505551,di,ci,0.6065,test,ci-di,0.787523005,0.514276254,0.857508757,57.8275845,30.47315614,12.93116283,10.40776539,7.031292915,0.904742056,0.717458755,0.984275296,81.96131643,0.006517925,0.944319629
1PMU_A,0.0820121361517469,-0.0910200519370725,0.0363842348602613,0.0684914135704071,0.00314898611780143,0.0630918401819534,-0.0112516452642558,-0.279864871776414,0.0423982600301,0.0514472199861198,-0.0640185248436562,-0.174742835429111,-0.0589401654201147,0.0853542780761528,di,ci,0.7915,test,ci-di,0.888814923,0.594374758,0.888355038,56.84400955,33.96629256,11.87027073,8.964693069,6.767930031,0.917616863,0.821806202,0.969918957,89.79670845,0.007946404,0.936665054
1PMV_A,0.0596839929163298,-0.109592412344169,0.0206335529202111,0.0229519297125901,-0.169391926525412,0.0789462929272745,0.0144819392571578,-0.303912168708006,0.0268064630583804,0.0482559665803268,0.00852530815168327,-0.427443482583852,-0.0562102416627781,0.0862376319435057,di,ci,0.798,test,ci-di,0.850863678,0.561821731,0.859922414,51.41780287,13.05941067,12.17948437,9.31819725,6.559427738,0.889870969,0.81641729,0.995631873,83.89261222,0.008566427,0.938224401
1PW2_A,-0.0182614439897529,0.0137454850451476,-0.416257044335752,0.461369310325188,0.402820994103141,-0.0357449763720303,0.569717021772385,0.404644493881901,-0.437924387075137,-0.462431422243927,-0.066585949564495,0.0433030860031844,0.0594542833262604,0.00888500126000484,di,co,0.996,test,co-di,0.71837947,0.778004371,0.071261572,103.6569395,82.39478026,9.942629814,16.94550323,12.70297432,0.062873739,-0.045955279,0.969008942,94.8911319,0.034836269,0.801677093
1PXI_A,-0.0307650399377371,0.00666240526571989,-0.430503260603845,0.47008089409563,0.445498172430315,-0.0342169081997973,0.5816191071734,0.418600429647294,-0.481402838172391,-0.485421647009613,-0.0613573342391811,0.0619668976291095,0.0578445994657972,0.00392821550968797,di,co,0.9955,test,co-di,0.697127052,0.76558938,0.045544761,104.6949586,87.56599857,9.972432137,17.10900307,12.82397938,-0.014496977,-0.084777736,0.970862207,95.32719307,0.034470676,0.79292709
1PXJ_A,-0.0543937369053455,0.0343050743864992,-0.405310722388824,0.434206075601962,0.445082716373495,-0.0374149470196803,0.546240530625216,0.407514368230568,-0.480269466536458,-0.446682998091752,-0.0527890340306009,0.0752386635409737,0.057816341400089,0.00592159612930465,di,co,1,test,co-di,0.65696525,0.814040548,0.09102152,100.4203344,87.51565752,9.910059929,16.62300491,12.72785759,-0.012480121,-0.019361693,0.973899212,95.63727452,0.034464258,0.79644592
1PXK_A,-0.162770385664802,0.0346032965087564,-0.497282787932441,0.520893025086962,0.420210241206821,-0.0400481629580063,0.501384828863053,0.440493505410601,-0.586155066888072,-0.534308525485118,-0.0190296849093614,0.0278786598277725,0.0220216672858353,-0.00378979976293186,di,co,0.983,test,co-di,0.472756975,0.814563262,-0.075003492,110.7494217,84.50184536,9.858703613,16.00681877,13.01380348,-0.200905525,-0.167330593,0.985865099,94.53075571,0.026334536,0.779302806
1PXL_A,-0.0050007087754411,0.047407238203867,-0.436571647680358,0.484336542741994,0.390101771071251,-0.0481131354257157,0.453683878752562,0.40900815028103,-0.530418612984563,-0.460727070266977,-0.0247327130042536,0.0435945575812288,0.0391396840515398,0.0211335358492568,di,co,1,training,co-di,0.740918801,0.837005593,0.034590304,106.3935746,80.85358467,9.701410294,15.35154724,12.74080944,-0.101721464,-0.043077224,0.98384368,94.89794184,0.030222397,0.82329891
1PXM_A,0.0586456847722808,0.0176152672990482,-0.307757540811231,0.341399209377339,0.269247621835156,-0.0441252932229276,0.351277991883166,0.415878272124763,-0.393112177572444,-0.293893842675013,-0.0621932288082708,0.0835594098023657,0.0648435957501506,0.0194174071390059,di,co,0.995,test,co-di,0.849098861,0.784787199,0.267121383,89.36203521,66.20961771,9.779186249,13.94478989,12.80037689,0.142617903,0.238645807,0.970565927,95.83168038,0.036060295,0.820269501
1PXN_A,-0.114312036487827,0.0501756706430956,-0.52291305498147,0.528968293923966,0.494284845489109,-0.0385227841812198,0.538342787483097,0.385183639936277,-0.601261027993804,-0.596454698636762,-0.0384560264809103,0.0253666928357918,0.0862608759990204,-0.0278526886479579,di,co,0.985,test,co-di,0.555121848,0.841858011,-0.121270425,111.7116214,93.47750788,9.888453484,16.51451302,12.53423882,-0.227786865,-0.272273766,0.978979498,94.47206613,0.040924609,0.736825612
1PXO_A,0.0236178767988704,-0.0177235327273229,-0.471741032876175,0.481162764714884,0.415636773083829,-0.019625006790514,0.533633659817646,0.433893410404832,-0.532144459434362,-0.505538067105115,-0.00309900375520931,0.138707407955218,0.0773832951301471,0.0152952922722977,di,co,0.992,test,co-di,0.789561939,0.722846504,-0.028896338,106.0154066,83.94767559,10.2570219,16.44982338,12.9565773,-0.10479264,-0.118747341,0.991511675,97.12015784,0.038908324,0.812992907
1PXP_A,-0.000755334887503424,0.0288992982115909,-0.527212180505139,0.538703345743428,0.493594339408541,-0.0546801610835036,0.504865162190525,0.434780704382989,-0.582566294786977,-0.598412530521449,-0.062266562842071,0.0550828351379997,0.03506094179321,0.0308642920902615,di,co,0.987,test,co-di,0.748134682,0.80456548,-0.129031068,112.8715907,93.39383886,9.573331833,16.05462837,12.96427059,-0.194519238,-0.27557986,0.970539934,95.16635388,0.029296029,0.8404762
1PY5_A,0.118560017194533,0.137652558371007,0.059942858496193,-0.110211326250018,-0.124800636816506,-0.023700229990419,-0.16140308708173,-0.166588096671827,0.0700711293812401,0.0782014122502188,0.0136730763230488,-0.111519417227878,0.00156980637221583,0.117102596618693,di,ci,0.999,test,ci-di,0.95093552,0.995184644,0.930882307,35.55088283,18.46256296,10.17754173,6.902051449,7.750097275,0.966861251,0.866984685,0.997456482,91.27385997,0.021689489,0.99270901
1PYE_A,0.0875603176931038,0.0755511033323303,-0.313702799168656,0.368042090214846,0.292140894323065,-0.0653966863139636,0.393786488729976,0.504640125937635,-0.257878205932088,-0.324008413917037,0.00427143764258254,0.0282568892632156,0.0142050275246553,0.0653797140858275,di,co,0.9745,test,co-di,0.898245192,0.886335241,0.256389194,92.53663812,68.98360874,9.36432457,14.5287323,13.5699873,0.383269282,0.187792818,0.994124103,94.53959266,0.024559213,0.901404806
1PYX_A,0.142534126560743,0.139692814308424,0.0913743418923814,-0.127428653093083,-0.0829660779005565,-0.0650663791050157,-0.175269888549932,-0.124898474772261,0.0880476105051885,0.11397917217186,0.0156816862831895,0.0411433935513545,0.00425302374734108,0.117388517518497,di,ci,0.995,test,ci-di,0.991684421,0.998760738,0.987621409,33.49937135,23.53168059,9.37076664,6.711562157,8.111567497,0.998850735,0.927400821,0.998168427,94.84067286,0.022298904,0.993213734
1Q24_A,0.144653980365147,0.138775543686775,0.091028459921153,-0.12091871451074,-0.104950768841733,-0.0641188301581975,-0.145115561408311,-0.150170571837761,0.0883024923474197,0.152126118462782,0.0157581914574505,0.0322799262820076,-0.0116220828240927,0.119415801408042,di,ci,0.999,test,ci-di,0.995287546,0.997152976,0.986997034,34.27505586,20.86778291,9.389246941,7.125794411,7.892445564,0.999304302,0.991817685,0.998195544,94.63358687,0.018693334,0.996792412
1Q3D_A,0.144723559519443,0.138159537234002,0.0889819399341369,-0.104737556938548,-0.113659912997897,-0.0423573795020721,-0.135940913322482,-0.0510773027725333,0.0854107930067398,0.110637760409456,0.0110152487073896,0.179926296231281,0.0236980953061723,0.117987219989253,di,ci,0.998,test,ci-di,0.99540581,0.99607326,0.983302722,36.20310374,19.81249089,9.813666344,7.25182724,8.751634598,0.994158469,0.921758344,0.996514424,98.08319567,0.026715288,0.994270598
1Q3W_A,0.146131772555104,0.139734981912613,0.0806012332049244,-0.0754977693755994,-0.120010612160453,-0.0647234561641449,-0.150879299533644,-0.0696220456297538,0.0867992201273628,0.117462754848152,-0.00220514276983617,0.0961931139838965,0.0113603191345652,0.119170460991151,di,ci,0.9925,test,ci-di,0.997799356,0.998834648,0.96817414,39.68713819,19.04297301,9.377454758,7.046617508,8.590842247,0.996629201,0.933283375,0.991828501,96.12685416,0.02391312,0.996359323
1Q41_A,0.147287568770055,0.139638409484072,0.0743150968431922,-0.123545131812636,-0.137479701171823,-0.0811325608801498,-0.179365833861045,-0.119747395584502,0.0783716204903692,0.117848959073817,0.015861056031465,0.0784925319608785,0.00995517823149362,0.117442546464651,di,ci,1,test,ci-di,0.999763868,0.998665379,0.956826609,33.96210802,16.92623342,9.057423592,6.655295849,8.156229973,0.98163213,0.933935539,0.998232004,95.71329788,0.023593983,0.993309109
1Q4L_A,0.142762607455783,0.139994638734197,0.080636017782682,-0.0527027982243506,-0.12580373264477,-0.0645960275195139,-0.130094943208266,-0.0609045217613818,0.0837583804586509,0.10294363946577,-0.0266430317166138,0.110316386730853,0.0142645156402339,0.118377205029644,di,ci,0.989,test,ci-di,0.992072771,0.999289766,0.968236932,42.40324769,18.34101726,9.379940033,7.33213377,8.666427612,0.99121797,0.908765662,0.983166574,96.45683021,0.024572724,0.994959022
1Q5K_A,0.146690131383565,0.139735129108417,0.0812206271442242,-0.118418089828101,-0.121556873596988,-0.0758419244444798,-0.176496009756989,-0.0998530683322046,0.0844187803812623,0.117645372850222,0.0149864701631972,0.0317424175679605,0.00677504070150838,0.120316060458211,di,ci,0.9995,test,ci-di,0.998748401,0.998834906,0.96929225,34.57301502,18.85561162,9.160608292,6.694718838,8.328723907,0.992393164,0.933591753,0.99792201,94.62102852,0.022871707,0.998381601
1Q61_A,0.142529683435419,0.135966628407736,0.0891162316043403,-0.137328615767678,-0.11687230358469,-0.0800728395524637,-0.1460711743743,-0.154655492981306,0.0860799728315553,0.153939269145198,0.0191006214649769,0.033320729096643,-0.013728070427886,0.115476731229253,di,ci,0.9945,test,ci-di,0.991676869,0.992229601,0.983545141,32.31975228,19.42324367,9.078091621,7.112667084,7.853559017,0.995349287,0.994879463,0.999380257,94.65790418,0.01821502,0.989838939
1Q62_A,0.144747608994263,0.136153195095743,0.0873321359735371,-0.132080752550021,-0.127062251702351,-0.070865947840053,-0.149151698499767,-0.177427504043483,0.0859677171963659,0.152805983199399,0.0177154876251564,0.00573321178316843,-0.0125370268609201,0.116926879473825,di,ci,0.9995,test,ci-di,0.995446687,0.992556609,0.980324549,32.9450556,18.18852178,9.257656097,7.070349693,7.656114101,0.995149526,0.992965739,0.998889301,94.01334961,0.018485531,0.992398824
1Q8T_A,0.145277654077202,0.137986507425234,0.090058301362065,-0.120665159718409,-0.111570389807638,-0.0601033116192412,-0.133541155006995,-0.141239996105695,0.0878307496181051,0.153201661853898,0.0154659838419862,0.0277388040267375,-0.00838197285518394,0.117859155950025,di,ci,0.9975,test,ci-di,0.996347607,0.995769979,0.985245735,34.3052679,20.06567962,9.467562675,7.2847929,7.969878197,0.998464827,0.993633902,0.998091972,94.52748812,0.019429231,0.994044532
1Q8U_A,0.143018527826717,0.137525833623681,0.0894226845542528,-0.106416791740727,-0.115521770935169,-0.0386207272544253,-0.106834150453699,-0.128062793903864,0.0878397593577389,0.152219087369062,0.0128322896208997,0.0227683596146701,-0.0139350966431553,0.118798260891934,di,ci,0.9955,test,ci-di,0.99250776,0.994962525,0.98409834,36.00301638,19.58688849,9.886543274,7.651669025,8.084131241,0.99848086,0.991974677,0.997158468,94.41135869,0.018168,0.995702294
1Q8W_A,0.144970508330783,0.138939237972511,0.083451746035803,-0.0998677213266452,-0.111141836511841,-0.00057926322263908,-0.137083032222013,-0.228195803945773,0.0807142960923375,0.143223524320532,0.01817233780633,-0.0124269766032277,-0.0226927678576975,0.117575328795805,di,ci,1,test,ci-di,0.99582555,0.997439894,0.973319794,36.7833636,20.11760767,10.62847614,7.236137867,7.215927124,0.985800965,0.976784314,0.99905123,93.58905509,0.016178949,0.993543504
1Q8Y_A,0.144315425629253,0.138152401090135,0.0722602424509595,-0.0811626164594789,-0.135839326293641,-0.0508432675836933,-0.120433706529723,-0.0800907296474708,0.0809140484206264,0.0556826100492813,0.00828931210431168,-0.0679894432876692,0.0421037825491,0.117107978269948,di,ci,0.992,test,ci-di,0.994712103,0.996060752,0.953117252,39.01214962,17.12499859,9.648163795,7.464850903,8.500073433,0.986156428,0.828958296,0.995548225,92.29089399,0.030895606,0.99271851
1Q8Z_A,0.140897945072065,0.13888927127281,0.0828374469137035,-0.0808690398938442,-0.124960285474837,-0.0327704509660264,-0.115994983298672,0.000594514839153952,0.0858075103927767,0.066440012988254,0.00782458485537485,0.126794091327964,0.0710144519499104,0.117266429378121,di,ci,0.899,test,ci-di,0.988903396,0.997352314,0.972210881,39.04713041,18.44321824,10.00064278,7.525825977,9.199655533,0.994864435,0.847123791,0.995383504,96.84181519,0.037461826,0.992998217
1Q97_A,0.144070054739273,0.13636248527864,0.0809398294269067,-0.132669212814437,-0.123735819321123,-0.048345744084582,-0.130431195430419,-0.038301896150601,0.0816373147807301,0.085397905681951,0.018772924725088,0.00360083700736576,0.0531044564417223,0.115754085106748,di,ci,0.9795,test,ci-di,0.994295045,0.992923446,0.968785363,32.87493827,18.59158751,9.696873665,7.327514648,8.86240387,0.987443494,0.879137048,0.999264106,93.96352882,0.03339409,0.99032854
1Q99_A,0.14627866103102,0.13910154759074,0.0816321273917385,-0.0706190985507276,-0.136279266512216,-0.0303373756406058,-0.0385271926835499,0.0402581101275425,0.0857752409928682,0.0601857908550577,0.00369991857094711,0.141624784667772,0.0480315656679076,0.119610086949209,di,ci,0.9735,test,ci-di,0.998049023,0.997724385,0.970035077,40.2684508,17.07169078,10.0480957,8.590006828,9.543559074,0.994807011,0.836562595,0.99392153,97.18831941,0.03224193,0.997135376
1QCF_A,0.0254693933679394,-0.0279555654974645,-0.11863144162331,0.24929248101261,0.14994342197711,-0.0348146884812036,0.327619194823195,0.263421640948338,-0.196978552511774,-0.189256696131365,-0.0300391849062131,0.0614988115509261,-0.0226467571399271,0.0075491802482088,di,co,0.995,test,co-di,0.79270897,0.704912131,0.608525729,78.38716017,51.75345901,9.960773468,13.61978722,11.47850037,0.491641353,0.415341388,0.981962819,95.31625671,0.016189399,0.799319025
1QL6_A,0.147039648025051,0.139474204577234,0.0889933128380317,-0.107644205794924,-0.0981236730029366,-0.0338276297967247,-0.116358414741989,-0.0885856326632268,0.0874309516237808,0.101960337180881,0.0168598665310667,-0.0313883045786586,0.00425104682750576,0.118668737575482,di,ci,0.9995,test,ci-di,0.999342476,0.998377566,0.983323252,35.85676522,21.69502605,9.980024338,7.520833492,8.426418304,0.997753379,0.907105208,0.998586029,93.14604275,0.022298455,0.995473652
1QMZ_A,0.145313240851757,0.136880536346945,0.0874711695851599,-0.150025422743143,-0.103180412408388,-0.01820182529706,-0.157995925954223,-0.160386882422686,0.0855276813553042,0.133493740708529,0.0162108943285913,-0.135471480667239,0.00521618437462814,0.120170635778524,di,ci,0.998,test,ci-di,0.996408094,0.993831469,0.980575528,30.80687833,21.08229802,10.28477859,6.948855877,7.803864956,0.994366474,0.960354109,0.998356003,90.71424412,0.022517658,0.998124889
